%YAML:1.0
---
opencv_ml_svm:
   format: 3
   svmType: C_SVC
   kernel:
      type: RBF
      gamma: 5.0624999999999998e-01
   C: 1.2500000000000000e+01
   term_criteria: { iterations:100 }
   var_count: 180
   class_count: 14
   class_labels: !!opencv-matrix
      rows: 14
      cols: 1
      dt: i
      data: [ 0, 1, 2, 3, 4, 5, 6, 7, 8, 9, 10, 11, 12, 13 ]
   sv_total: 701
   support_vectors:
      - [ 4.46215838e-01, 4.46215838e-01, 4.46215838e-01, 4.46215838e-01,
          4.46215838e-01, 5.24723709e-01, 2.11490974e-01, 3.52173537e-01,
          5.24723709e-01, 5.24723709e-01, 6.96422517e-01, 9.96767431e-02,
          9.70812142e-02, 6.06569760e-02, 6.96422517e-01, 4.60589945e-01,
          4.60589945e-01, 4.60589945e-01, 4.60589945e-01, 3.83180112e-01,
          4.77068990e-01, 4.77068990e-01, 4.77068990e-01, 2.91300148e-01,
          4.77068990e-01, 4.83897775e-01, 3.27674925e-01, 4.83897775e-01,
          4.83897775e-01, 4.30493593e-01, 5.31598985e-01, 5.31598985e-01,
          2.62935311e-01, 5.31598985e-01, 2.78861493e-01, 4.73591894e-01,
          4.73591894e-01, 3.13229054e-01, 4.73591894e-01, 4.73591894e-01,
          4.46215838e-01, 4.46215838e-01, 4.46215838e-01, 4.46215838e-01,
          4.46215838e-01, 5.31598985e-01, 5.31598985e-01, 2.62935311e-01,
          5.31598985e-01, 2.78861493e-01, 4.73591894e-01, 4.73591894e-01,
          3.13229054e-01, 4.73591894e-01, 4.73591894e-01, 4.46215838e-01,
          4.46215838e-01, 4.46215838e-01, 4.46215838e-01, 4.46215838e-01,
          3.94916147e-01, 5.62094986e-01, 2.75281936e-01, 5.62094986e-01,
          3.61589015e-01, 2.91798353e-01, 4.76993054e-01, 4.76993054e-01,
          4.76993054e-01, 4.76993054e-01, 4.46215838e-01, 4.46215838e-01,
          4.46215838e-01, 4.46215838e-01, 4.46215838e-01, 3.77255499e-01,
          4.61807728e-01, 4.61807728e-01, 4.61807728e-01, 4.61807728e-01,
          3.59088361e-01, 5.07556796e-01, 5.07556796e-01, 3.05196524e-01,
          5.07556796e-01, 5.28278232e-01, 4.50096756e-01, 5.28278232e-01,
          3.64470154e-01, 3.18029672e-01, 6.96422517e-01, 9.96767431e-02,
          9.70812142e-02, 6.06569760e-02, 6.96422517e-01, 4.97128487e-01,
          4.97128487e-01, 4.97128487e-01, 8.05483535e-02, 4.97128487e-01,
          2.87249804e-01, 5.34668684e-01, 5.34668684e-01, 2.33529836e-01,
          5.34668684e-01, 4.83897775e-01, 3.27674925e-01, 4.83897775e-01,
          4.83897775e-01, 4.30493593e-01, 4.82729197e-01, 2.51134813e-01,
          4.82729197e-01, 4.82729197e-01, 4.82729197e-01, 3.20543200e-01,
          4.82481092e-01, 4.40532744e-01, 4.82481092e-01, 4.82481092e-01,
          4.46215838e-01, 4.46215838e-01, 4.46215838e-01, 4.46215838e-01,
          4.46215838e-01, 4.83639151e-01, 4.83639151e-01, 4.83639151e-01,
          2.44012386e-01, 4.83639151e-01, 4.54393357e-01, 4.39906090e-01,
          1.66315004e-01, 5.32461762e-01, 5.32461762e-01, 4.46215838e-01,
          4.46215838e-01, 4.46215838e-01, 4.46215838e-01, 4.46215838e-01,
          4.83639151e-01, 4.83639151e-01, 4.83639151e-01, 2.44012386e-01,
          4.83639151e-01, 4.54393357e-01, 4.39906090e-01, 1.66315004e-01,
          5.32461762e-01, 5.32461762e-01, 4.46215838e-01, 4.46215838e-01,
          4.46215838e-01, 4.46215838e-01, 4.46215838e-01, 9.79501605e-02,
          4.96348768e-01, 4.96348768e-01, 4.96348768e-01, 4.96348768e-01,
          4.86649901e-01, 4.86649901e-01, 4.86649901e-01, 4.86649901e-01,
          2.18693718e-01, 5.28278232e-01, 4.50096756e-01, 5.28278232e-01,
          3.64470154e-01, 3.18029672e-01, 5.17386198e-01, 7.14341551e-02,
          5.17386198e-01, 5.17386198e-01, 4.32047069e-01, 5.35208583e-01,
          5.35208583e-01, 2.63351470e-01, 5.35208583e-01, 2.56820172e-01 ]
      - [ 6.04978025e-01, 6.04978025e-01, 4.08681393e-01, 2.94623733e-01,
          9.02170688e-02, 4.98058170e-01, 4.98058170e-01, 4.98058170e-01,
          4.98058170e-01, 5.27063496e-02, 4.49529618e-01, 4.49529618e-01,
          4.49529618e-01, 4.32668924e-01, 4.49529618e-01, 4.89087075e-01,
          4.89087075e-01, 4.89087075e-01, 4.89087075e-01, 1.95679545e-01,
          6.19578242e-01, 6.19578242e-01, 4.19795275e-01, 2.22073689e-01,
          2.26872750e-02, 4.88011599e-01, 4.88011599e-01, 4.26993757e-01,
          3.13585848e-01, 4.88011599e-01, 4.46215838e-01, 4.46215838e-01,
          4.46215838e-01, 4.46215838e-01, 4.46215838e-01, 5.44440448e-01,
          5.44440448e-01, 5.44440448e-01, 3.24375927e-01, 9.85039491e-03,
          3.11641157e-01, 4.84778136e-01, 4.84778136e-01, 4.84778136e-01,
          4.39327210e-01, 4.46215838e-01, 4.46215838e-01, 4.46215838e-01,
          4.46215838e-01, 4.46215838e-01, 5.44440448e-01, 5.44440448e-01,
          5.44440448e-01, 3.24375927e-01, 9.85039491e-03, 3.11641157e-01,
          4.84778136e-01, 4.84778136e-01, 4.84778136e-01, 4.39327210e-01,
          1.42746851e-01, 4.93632704e-01, 4.93632704e-01, 4.93632704e-01,
          4.93632704e-01, 5.28913796e-01, 5.28913796e-01, 5.12399614e-01,
          2.35390365e-01, 3.42426866e-01, 4.58697557e-01, 5.66940963e-01,
          7.33278170e-02, 5.66940963e-01, 3.68393987e-01, 2.99287289e-01,
          5.44511914e-01, 5.44511914e-01, 1.24538191e-01, 5.44511914e-01,
          4.82098788e-01, 4.82098788e-01, 4.82098788e-01, 2.55944997e-01,
          4.82098788e-01, 4.68062252e-01, 4.68062252e-01, 4.68062252e-01,
          3.63386720e-01, 4.53903049e-01, 4.49529618e-01, 4.49529618e-01,
          4.49529618e-01, 4.32668924e-01, 4.49529618e-01, 2.34875306e-01,
          4.92039055e-01, 4.92039055e-01, 4.62181628e-01, 4.92039055e-01,
          1.89283356e-01, 4.89714354e-01, 4.89714354e-01, 4.89714354e-01,
          4.89714354e-01, 4.88011599e-01, 4.88011599e-01, 4.26993757e-01,
          3.13585848e-01, 4.88011599e-01, 1.56758249e-01, 2.18899280e-01,
          6.21558130e-01, 3.85531932e-01, 6.21558130e-01, 9.95857939e-02,
          4.96267617e-01, 4.96267617e-01, 4.96267617e-01, 4.96267617e-01,
          3.11641157e-01, 4.84778136e-01, 4.84778136e-01, 4.84778136e-01,
          4.39327210e-01, 2.85465587e-02, 7.99926221e-02, 5.73602259e-01,
          5.73602259e-01, 5.73602259e-01, 4.46215838e-01, 4.46215838e-01,
          4.46215838e-01, 4.46215838e-01, 4.46215838e-01, 3.11641157e-01,
          4.84778136e-01, 4.84778136e-01, 4.84778136e-01, 4.39327210e-01,
          2.85465587e-02, 7.99926221e-02, 5.73602259e-01, 5.73602259e-01,
          5.73602259e-01, 4.46215838e-01, 4.46215838e-01, 4.46215838e-01,
          4.46215838e-01, 4.46215838e-01, 4.58697557e-01, 5.66940963e-01,
          7.33278170e-02, 5.66940963e-01, 3.68393987e-01, 1.29922688e-01,
          1.20748267e-01, 7.35887662e-02, 6.91455781e-01, 6.91455781e-01,
          4.78625864e-01, 4.78625864e-01, 4.78625864e-01, 4.78625864e-01,
          2.80871153e-01, 4.68062252e-01, 4.68062252e-01, 4.68062252e-01,
          3.63386720e-01, 4.53903049e-01, 4.60667104e-01, 3.82807791e-01,
          4.60667104e-01, 4.60667104e-01, 4.60667104e-01, 4.84244585e-01,
          2.39148825e-01, 4.84244585e-01, 4.84244585e-01, 4.84244585e-01 ]
      - [ 4.95781749e-01, 4.95781749e-01, 4.95781749e-01, 4.95781749e-01,
          1.08858675e-01, 4.80797499e-01, 4.01395977e-01, 4.80797499e-01,
          4.80797499e-01, 3.74940366e-01, 5.23506761e-01, 3.55686724e-01,
          5.23506761e-01, 2.14664489e-01, 5.23506761e-01, 4.97996539e-01,
          4.97996539e-01, 4.97996539e-01, 4.97996539e-01, 5.49923331e-02,
          4.82110977e-01, 4.82110977e-01, 4.82110977e-01, 4.82110977e-01,
          2.55852968e-01, 4.78203028e-01, 4.78203028e-01, 4.78203028e-01,
          4.78203028e-01, 2.83744961e-01, 5.39760530e-01, 5.39760530e-01,
          2.98756570e-01, 5.39760530e-01, 1.77002817e-01, 4.73135769e-01,
          4.73135769e-01, 3.15981805e-01, 4.73135769e-01, 4.73135769e-01,
          5.25161922e-01, 2.60658860e-01, 5.25161922e-01, 5.25161922e-01,
          3.15320700e-01, 5.39760530e-01, 5.39760530e-01, 2.98756570e-01,
          5.39760530e-01, 1.77002817e-01, 4.73135769e-01, 4.73135769e-01,
          3.15981805e-01, 4.73135769e-01, 4.73135769e-01, 5.25161922e-01,
          2.60658860e-01, 5.25161922e-01, 5.25161922e-01, 3.15320700e-01,
          2.75728166e-01, 5.69722772e-01, 2.81239778e-01, 4.89255339e-01,
          5.24627745e-01, 3.62538487e-01, 4.64737505e-01, 4.64737505e-01,
          4.64737505e-01, 4.64737505e-01, 4.70606089e-01, 3.30785364e-01,
          4.70606089e-01, 4.70606089e-01, 4.70606089e-01, 4.46215838e-01,
          4.46215838e-01, 4.46215838e-01, 4.46215838e-01, 4.46215838e-01,
          1.65009037e-01, 5.45375645e-01, 5.45375645e-01, 2.73901224e-01,
          5.45375645e-01, 5.21203697e-01, 3.25986415e-01, 5.21203697e-01,
          2.71233886e-01, 5.21203697e-01, 5.23506761e-01, 3.55686724e-01,
          5.23506761e-01, 2.14664489e-01, 5.23506761e-01, 4.79108423e-01,
          4.79108423e-01, 4.79108423e-01, 2.77551651e-01, 4.79108423e-01,
          3.83250773e-01, 4.60575312e-01, 4.60575312e-01, 4.60575312e-01,
          4.60575312e-01, 4.78203028e-01, 4.78203028e-01, 4.78203028e-01,
          4.78203028e-01, 2.83744961e-01, 4.46215838e-01, 4.46215838e-01,
          4.46215838e-01, 4.46215838e-01, 4.46215838e-01, 1.43791243e-01,
          5.41341722e-01, 3.07839811e-01, 5.41341722e-01, 5.41341722e-01,
          5.25161922e-01, 2.60658860e-01, 5.25161922e-01, 5.25161922e-01,
          3.15320700e-01, 4.81115818e-01, 4.81115818e-01, 4.81115818e-01,
          4.20684606e-01, 3.51854652e-01, 2.06027910e-01, 2.82724828e-01,
          1.66866511e-01, 6.49342716e-01, 6.49342716e-01, 5.25161922e-01,
          2.60658860e-01, 5.25161922e-01, 5.25161922e-01, 3.15320700e-01,
          4.81115818e-01, 4.81115818e-01, 4.81115818e-01, 4.20684606e-01,
          3.51854652e-01, 2.06027910e-01, 2.82724828e-01, 1.66866511e-01,
          6.49342716e-01, 6.49342716e-01, 4.70606089e-01, 3.30785364e-01,
          4.70606089e-01, 4.70606089e-01, 4.70606089e-01, 4.60261166e-01,
          4.60261166e-01, 4.60261166e-01, 4.60261166e-01, 3.84761393e-01,
          5.24761736e-01, 4.83104765e-01, 4.26903963e-01, 5.24761736e-01,
          1.68440968e-01, 5.21203697e-01, 3.25986415e-01, 5.21203697e-01,
          2.71233886e-01, 5.21203697e-01, 4.85489279e-01, 3.61872286e-01,
          4.85489279e-01, 4.85489279e-01, 3.96358430e-01, 5.28521240e-01,
          5.28521240e-01, 1.47246763e-01, 5.28521240e-01, 3.67472619e-01 ]
      - [ 4.74163443e-01, 3.09741914e-01, 4.74163443e-01, 4.74163443e-01,
          4.74163443e-01, 4.84464139e-01, 2.37358749e-01, 4.84464139e-01,
          4.84464139e-01, 4.84464139e-01, 4.95563745e-01, 1.12769179e-01,
          4.95563745e-01, 4.95563745e-01, 4.95563745e-01, 4.89694655e-01,
          4.89694655e-01, 4.89694655e-01, 4.89694655e-01, 1.89488024e-01,
          4.46215838e-01, 4.46215838e-01, 4.46215838e-01, 4.46215838e-01,
          4.46215838e-01, 4.65390652e-01, 4.65390652e-01, 4.65390652e-01,
          3.59162569e-01, 4.65390652e-01, 4.62287515e-01, 4.62287515e-01,
          4.62287515e-01, 4.62287515e-01, 3.74891311e-01, 4.69802767e-01,
          4.69802767e-01, 3.35334241e-01, 4.69802767e-01, 4.69802767e-01,
          4.46215838e-01, 4.46215838e-01, 4.46215838e-01, 4.46215838e-01,
          4.46215838e-01, 4.62287515e-01, 4.62287515e-01, 4.62287515e-01,
          4.62287515e-01, 3.74891311e-01, 4.69802767e-01, 4.69802767e-01,
          3.35334241e-01, 4.69802767e-01, 4.69802767e-01, 4.46215838e-01,
          4.46215838e-01, 4.46215838e-01, 4.46215838e-01, 4.46215838e-01,
          4.55845118e-01, 4.55845118e-01, 4.55845118e-01, 4.55845118e-01,
          4.05299574e-01, 3.06847155e-01, 4.74632561e-01, 4.74632561e-01,
          4.74632561e-01, 4.74632561e-01, 4.46215838e-01, 4.46215838e-01,
          4.46215838e-01, 4.46215838e-01, 4.46215838e-01, 4.46215838e-01,
          4.46215838e-01, 4.46215838e-01, 4.46215838e-01, 4.46215838e-01,
          4.69247401e-01, 4.69247401e-01, 4.69247401e-01, 3.38438362e-01,
          4.69247401e-01, 5.06024063e-01, 4.62257117e-01, 5.06024063e-01,
          3.02707464e-01, 4.21321988e-01, 4.95563745e-01, 1.12769179e-01,
          4.95563745e-01, 4.95563745e-01, 4.95563745e-01, 4.97037858e-01,
          4.97037858e-01, 4.97037858e-01, 8.27608183e-02, 4.97037858e-01,
          8.62825960e-02, 5.06673515e-01, 5.06673515e-01, 5.06673515e-01,
          4.66198444e-01, 4.65390652e-01, 4.65390652e-01, 4.65390652e-01,
          3.59162569e-01, 4.65390652e-01, 5.48847437e-01, 1.16945706e-01,
          5.48847437e-01, 2.77745098e-01, 5.48847437e-01, 2.39089653e-01,
          4.84251887e-01, 4.84251887e-01, 4.84251887e-01, 4.84251887e-01,
          4.46215838e-01, 4.46215838e-01, 4.46215838e-01, 4.46215838e-01,
          4.46215838e-01, 4.90545243e-01, 4.90545243e-01, 4.90545243e-01,
          1.80449650e-01, 4.90545243e-01, 4.90997523e-01, 4.68193769e-01,
          2.29466736e-01, 4.90997523e-01, 4.90997523e-01, 4.46215838e-01,
          4.46215838e-01, 4.46215838e-01, 4.46215838e-01, 4.46215838e-01,
          4.90545243e-01, 4.90545243e-01, 4.90545243e-01, 1.80449650e-01,
          4.90545243e-01, 4.90997523e-01, 4.68193769e-01, 2.29466736e-01,
          4.90997523e-01, 4.90997523e-01, 4.46215838e-01, 4.46215838e-01,
          4.46215838e-01, 4.46215838e-01, 4.46215838e-01, 8.37359428e-02,
          4.96997118e-01, 4.96997118e-01, 4.96997118e-01, 4.96997118e-01,
          4.52755779e-01, 4.52755779e-01, 4.52755779e-01, 4.52755779e-01,
          4.18958604e-01, 5.06024063e-01, 4.62257117e-01, 5.06024063e-01,
          3.02707464e-01, 4.21321988e-01, 5.21687448e-01, 1.61760598e-01,
          5.21687448e-01, 5.21687448e-01, 3.90064269e-01, 5.30291080e-01,
          2.88931519e-01, 5.30291080e-01, 3.02019954e-01, 5.07532775e-01 ]
      - [ 1.47441566e-01, 8.86408761e-02, 6.81503773e-01, 6.81503773e-01,
          1.86294258e-01, 5.43662012e-01, 2.62774557e-01, 5.43662012e-01,
          5.43662012e-01, 1.97015479e-01, 5.48881114e-01, 1.76671758e-01,
          5.48881114e-01, 2.43914664e-01, 5.48881114e-01, 4.80788559e-01,
          4.80788559e-01, 4.80788559e-01, 4.80788559e-01, 2.65645206e-01,
          4.46215838e-01, 4.46215838e-01, 4.46215838e-01, 4.46215838e-01,
          4.46215838e-01, 5.13248801e-01, 5.13248801e-01, 5.13248801e-01,
          1.85533032e-01, 4.12527233e-01, 5.09410143e-01, 5.09410143e-01,
          6.18057735e-02, 5.09410143e-01, 4.61081773e-01, 4.94506747e-01,
          4.94506747e-01, 1.30051106e-01, 4.94506747e-01, 4.94506747e-01,
          4.46215838e-01, 4.46215838e-01, 4.46215838e-01, 4.46215838e-01,
          4.46215838e-01, 5.09410143e-01, 5.09410143e-01, 6.18057735e-02,
          5.09410143e-01, 4.61081773e-01, 4.94506747e-01, 4.94506747e-01,
          1.30051106e-01, 4.94506747e-01, 4.94506747e-01, 4.46215838e-01,
          4.46215838e-01, 4.46215838e-01, 4.46215838e-01, 4.46215838e-01,
          1.72366992e-01, 5.44223249e-01, 2.76257277e-01, 5.44223249e-01,
          5.44223249e-01, 1.43285245e-01, 4.93593842e-01, 4.93593842e-01,
          4.93593842e-01, 4.93593842e-01, 4.70390528e-01, 4.33826447e-01,
          4.70390528e-01, 3.78542572e-01, 4.70390528e-01, 7.95752928e-02,
          3.12876582e-01, 1.46544784e-01, 6.30337000e-01, 6.85661137e-01,
          2.89583206e-01, 5.50101459e-01, 5.50101459e-01, 5.30418418e-02,
          5.50101459e-01, 5.47255278e-01, 2.57247329e-01, 5.47255278e-01,
          1.72898084e-01, 5.47255278e-01, 5.48881114e-01, 1.76671758e-01,
          5.48881114e-01, 2.43914664e-01, 5.48881114e-01, 4.98325020e-01,
          4.98325020e-01, 4.98325020e-01, 4.13708836e-02, 4.98325020e-01,
          8.33274350e-02, 5.80204844e-01, 5.80204844e-01, 8.21680874e-02,
          5.54288864e-01, 5.13248801e-01, 5.13248801e-01, 5.13248801e-01,
          1.85533032e-01, 4.12527233e-01, 4.51508999e-01, 3.87606740e-01,
          1.03763968e-01, 4.22965556e-01, 6.70477748e-01, 9.13191438e-02,
          5.42680025e-01, 3.20525557e-01, 5.42680025e-01, 5.42680025e-01,
          4.46215838e-01, 4.46215838e-01, 4.46215838e-01, 4.46215838e-01,
          4.46215838e-01, 9.99143049e-02, 6.11685932e-01, 6.11685932e-01,
          4.03472692e-01, 2.69814998e-01, 2.25513473e-01, 5.24266660e-01,
          2.18325570e-01, 5.57251036e-01, 5.57251036e-01, 4.46215838e-01,
          4.46215838e-01, 4.46215838e-01, 4.46215838e-01, 4.46215838e-01,
          9.99143049e-02, 6.11685932e-01, 6.11685932e-01, 4.03472692e-01,
          2.69814998e-01, 2.25513473e-01, 5.24266660e-01, 2.18325570e-01,
          5.57251036e-01, 5.57251036e-01, 4.70390528e-01, 4.33826447e-01,
          4.70390528e-01, 3.78542572e-01, 4.70390528e-01, 4.46215838e-01,
          4.46215838e-01, 4.46215838e-01, 4.46215838e-01, 4.46215838e-01,
          4.88463223e-01, 4.88463223e-01, 4.88463223e-01, 4.88463223e-01,
          2.01831803e-01, 5.47255278e-01, 2.57247329e-01, 5.47255278e-01,
          1.72898084e-01, 5.47255278e-01, 4.98314589e-01, 4.18743826e-02,
          4.98314589e-01, 4.98314589e-01, 4.98314589e-01, 7.53261566e-01,
          5.44533730e-01, 1.55785561e-01, 2.86025882e-01, 1.49938926e-01 ]
      - [ 2.59244919e-01, 4.81658936e-01, 4.81658936e-01, 4.81658936e-01,
          4.81658936e-01, 4.94810678e-02, 4.79174517e-02, 5.74317157e-01,
          5.74317157e-01, 5.74317157e-01, 2.94810891e-01, 4.99566376e-01,
          4.99566376e-01, 3.99246067e-01, 4.99566376e-01, 4.81872886e-01,
          4.45957214e-01, 4.81872886e-01, 3.15760553e-01, 4.81872886e-01,
          5.03776431e-01, 2.41433710e-01, 4.18695986e-01, 5.03776431e-01,
          5.03776431e-01, 4.90747422e-01, 1.78231522e-01, 4.90747422e-01,
          4.90747422e-01, 4.90747422e-01, 4.46215838e-01, 4.46215838e-01,
          4.46215838e-01, 4.46215838e-01, 4.46215838e-01, 1.94683567e-01,
          5.08105040e-01, 4.27213609e-01, 5.08105040e-01, 5.08105040e-01,
          1.65746957e-01, 3.72339934e-01, 2.21366405e-01, 6.23962402e-01,
          6.23962402e-01, 4.46215838e-01, 4.46215838e-01, 4.46215838e-01,
          4.46215838e-01, 4.46215838e-01, 1.94683567e-01, 5.08105040e-01,
          4.27213609e-01, 5.08105040e-01, 5.08105040e-01, 1.65746957e-01,
          3.72339934e-01, 2.21366405e-01, 6.23962402e-01, 6.23962402e-01,
          2.33470351e-01, 4.09143358e-01, 7.13683963e-01, 3.21205258e-01,
          3.98059905e-01, 8.29901025e-02, 5.03474176e-01, 5.03474176e-01,
          4.77101177e-01, 5.03474176e-01, 2.25332052e-01, 2.27103561e-01,
          5.45345008e-01, 5.45345008e-01, 5.45345008e-01, 4.46215838e-01,
          4.46215838e-01, 4.46215838e-01, 4.46215838e-01, 4.46215838e-01,
          4.94428724e-01, 4.94428724e-01, 4.94428724e-01, 1.31235152e-01,
          4.94428724e-01, 4.74978924e-01, 3.04689884e-01, 4.74978924e-01,
          4.74978924e-01, 4.74978924e-01, 2.94810891e-01, 4.99566376e-01,
          4.99566376e-01, 3.99246067e-01, 4.99566376e-01, 1.40840083e-01,
          5.85003674e-01, 5.85003674e-01, 2.57031471e-01, 4.73073721e-01,
          9.53486413e-02, 4.96475071e-01, 4.96475071e-01, 4.96475071e-01,
          4.96475071e-01, 4.90747422e-01, 1.78231522e-01, 4.90747422e-01,
          4.90747422e-01, 4.90747422e-01, 3.50705534e-01, 5.55618584e-01,
          5.41428983e-01, 2.13566363e-01, 4.73274946e-01, 1.27239883e-01,
          5.15823901e-01, 5.08702576e-01, 4.33280081e-01, 5.15823901e-01,
          1.65746957e-01, 3.72339934e-01, 2.21366405e-01, 6.23962402e-01,
          6.23962402e-01, 5.00483871e-01, 5.00483871e-01, 3.31366330e-01,
          3.65712434e-01, 5.00483871e-01, 2.89316654e-01, 6.66350305e-01,
          5.10168552e-01, 1.23660706e-01, 4.35954958e-01, 1.65746957e-01,
          3.72339934e-01, 2.21366405e-01, 6.23962402e-01, 6.23962402e-01,
          5.00483871e-01, 5.00483871e-01, 3.31366330e-01, 3.65712434e-01,
          5.00483871e-01, 2.89316654e-01, 6.66350305e-01, 5.10168552e-01,
          1.23660706e-01, 4.35954958e-01, 2.25332052e-01, 2.27103561e-01,
          5.45345008e-01, 5.45345008e-01, 5.45345008e-01, 5.70127428e-01,
          6.77890480e-02, 1.20728858e-01, 5.70127428e-01, 5.70127428e-01,
          1.22520402e-01, 6.16473317e-01, 6.16473317e-01, 4.30873454e-01,
          1.81942314e-01, 4.74978924e-01, 3.04689884e-01, 4.74978924e-01,
          4.74978924e-01, 4.74978924e-01, 4.98749971e-01, 3.54704889e-03,
          4.98749971e-01, 4.98749971e-01, 4.98749971e-01, 4.46215838e-01,
          4.46215838e-01, 4.46215838e-01, 4.46215838e-01, 4.46215838e-01 ]
      - [ 4.93284672e-01, 4.93284672e-01, 4.93284672e-01, 4.93284672e-01,
          1.47493273e-01, 4.92110938e-01, 4.92110938e-01, 4.92110938e-01,
          4.92110938e-01, 1.62457153e-01, 4.46215838e-01, 4.46215838e-01,
          4.46215838e-01, 4.46215838e-01, 4.46215838e-01, 4.96718407e-01,
          4.83168036e-01, 4.96718407e-01, 4.96718407e-01, 1.46287769e-01,
          5.27548611e-01, 5.27548611e-01, 4.29096997e-01, 4.83090818e-01,
          1.43580630e-01, 4.95433092e-01, 4.95433092e-01, 1.15047954e-01,
          4.95433092e-01, 4.95433092e-01, 4.71621573e-01, 3.24933320e-01,
          4.71621573e-01, 4.71621573e-01, 4.71621573e-01, 6.38436258e-01,
          6.38436258e-01, 1.42246544e-01, 3.26600194e-01, 2.26985827e-01,
          5.10260522e-01, 5.10260522e-01, 5.14414646e-02, 5.10260522e-01,
          4.59521919e-01, 4.71621573e-01, 3.24933320e-01, 4.71621573e-01,
          4.71621573e-01, 4.71621573e-01, 6.38436258e-01, 6.38436258e-01,
          1.42246544e-01, 3.26600194e-01, 2.26985827e-01, 5.10260522e-01,
          5.10260522e-01, 5.14414646e-02, 5.10260522e-01, 4.59521919e-01,
          1.79423019e-01, 3.74749452e-01, 5.16409099e-01, 5.26986301e-01,
          5.26986301e-01, 6.26980484e-01, 6.26980484e-01, 1.84192762e-01,
          3.27102810e-01, 2.58084834e-01, 4.30455446e-01, 5.19889593e-01,
          4.03139979e-01, 5.19889593e-01, 3.26226622e-01, 1.36486769e-01,
          4.94074076e-01, 4.94074076e-01, 4.94074076e-01, 4.94074076e-01,
          5.16955018e-01, 5.16955018e-01, 3.17510664e-01, 3.03803831e-01,
          5.16955018e-01, 4.46215838e-01, 4.46215838e-01, 4.46215838e-01,
          4.46215838e-01, 4.46215838e-01, 4.46215838e-01, 4.46215838e-01,
          4.46215838e-01, 4.46215838e-01, 4.46215838e-01, 1.33284852e-01,
          4.94292021e-01, 4.94292021e-01, 4.94292021e-01, 4.94292021e-01,
          1.58269420e-01, 5.52357376e-01, 5.52357376e-01, 5.17297924e-01,
          3.02721530e-01, 4.95433092e-01, 4.95433092e-01, 1.15047954e-01,
          4.95433092e-01, 4.95433092e-01, 1.22324042e-01, 2.27289945e-01,
          4.27901119e-01, 6.09994352e-01, 6.09994352e-01, 5.28627992e-01,
          5.84859252e-01, 5.84859252e-01, 7.10805282e-02, 1.59810856e-01,
          5.10260522e-01, 5.10260522e-01, 5.14414646e-02, 5.10260522e-01,
          4.59521919e-01, 1.00161552e-01, 2.43404537e-01, 6.05019666e-02,
          6.78339660e-01, 6.78339660e-01, 6.70213282e-01, 6.70213282e-01,
          2.49635443e-01, 1.57771900e-01, 8.79071057e-02, 5.10260522e-01,
          5.10260522e-01, 5.14414646e-02, 5.10260522e-01, 4.59521919e-01,
          1.00161552e-01, 2.43404537e-01, 6.05019666e-02, 6.78339660e-01,
          6.78339660e-01, 6.70213282e-01, 6.70213282e-01, 2.49635443e-01,
          1.57771900e-01, 8.79071057e-02, 4.30455446e-01, 5.19889593e-01,
          4.03139979e-01, 5.19889593e-01, 3.26226622e-01, 2.36793831e-01,
          1.97334781e-01, 2.36673951e-01, 6.49035215e-01, 6.49035215e-01,
          6.87407255e-01, 6.87407255e-01, 1.30211264e-01, 1.59400374e-01,
          7.56102055e-02, 4.46215838e-01, 4.46215838e-01, 4.46215838e-01,
          4.46215838e-01, 4.46215838e-01, 5.00946939e-01, 3.44218165e-01,
          3.51663619e-01, 5.00946939e-01, 5.00946939e-01, 6.52925372e-01,
          6.52925372e-01, 2.51416147e-01, 2.67835319e-01, 7.68931434e-02 ]
      - [ 4.46616977e-01, 4.46616977e-01, 4.46616977e-01, 4.46616977e-01,
          4.44603056e-01, 4.46215838e-01, 4.46215838e-01, 4.46215838e-01,
          4.46215838e-01, 4.46215838e-01, 4.60286587e-01, 3.84639531e-01,
          4.60286587e-01, 4.60286587e-01, 4.60286587e-01, 4.84885424e-01,
          2.33883515e-01, 4.84885424e-01, 4.84885424e-01, 4.84885424e-01,
          5.50541997e-01, 1.49377540e-01, 5.50541997e-01, 5.50541997e-01,
          2.50797063e-01, 5.42031169e-01, 1.72562927e-01, 5.42031169e-01,
          5.42031169e-01, 2.88818061e-01, 4.52808857e-01, 4.52808857e-01,
          4.52808857e-01, 4.52808857e-01, 4.18728530e-01, 4.82691526e-01,
          4.82691526e-01, 4.82691526e-01, 4.82691526e-01, 2.51424819e-01,
          4.90436047e-01, 1.81635961e-01, 4.90436047e-01, 4.90436047e-01,
          4.90436047e-01, 4.52808857e-01, 4.52808857e-01, 4.52808857e-01,
          4.52808857e-01, 4.18728530e-01, 4.82691526e-01, 4.82691526e-01,
          4.82691526e-01, 4.82691526e-01, 2.51424819e-01, 4.90436047e-01,
          1.81635961e-01, 4.90436047e-01, 4.90436047e-01, 4.90436047e-01,
          3.92544746e-01, 4.58619595e-01, 4.58619595e-01, 4.58619595e-01,
          4.58619595e-01, 2.77423471e-01, 5.14687955e-01, 5.14687955e-01,
          3.50977004e-01, 5.14687955e-01, 4.77482080e-01, 4.77482080e-01,
          4.77482080e-01, 2.88572848e-01, 4.77482080e-01, 4.85271126e-01,
          4.85271126e-01, 4.85271126e-01, 4.85271126e-01, 2.30653316e-01,
          4.46215838e-01, 4.46215838e-01, 4.46215838e-01, 4.46215838e-01,
          4.46215838e-01, 3.95814151e-01, 5.14594138e-01, 5.14594138e-01,
          2.09213719e-01, 5.14594138e-01, 4.60286587e-01, 3.84639531e-01,
          4.60286587e-01, 4.60286587e-01, 4.60286587e-01, 5.03479421e-01,
          3.73019904e-01, 5.03479421e-01, 5.03479421e-01, 3.08793068e-01,
          4.84396189e-01, 2.37914413e-01, 4.84396189e-01, 4.84396189e-01,
          4.84396189e-01, 5.42031169e-01, 1.72562927e-01, 5.42031169e-01,
          5.42031169e-01, 2.88818061e-01, 5.24002016e-01, 2.54115015e-01,
          5.24002016e-01, 5.24002016e-01, 3.26279014e-01, 4.93210524e-01,
          4.29389298e-01, 2.84480095e-01, 4.93210524e-01, 4.93210524e-01,
          4.90436047e-01, 1.81635961e-01, 4.90436047e-01, 4.90436047e-01,
          4.90436047e-01, 4.46215838e-01, 4.46215838e-01, 4.46215838e-01,
          4.46215838e-01, 4.46215838e-01, 3.29309464e-01, 5.36704123e-01,
          1.48463920e-01, 5.36704123e-01, 5.36704123e-01, 4.90436047e-01,
          1.81635961e-01, 4.90436047e-01, 4.90436047e-01, 4.90436047e-01,
          4.46215838e-01, 4.46215838e-01, 4.46215838e-01, 4.46215838e-01,
          4.46215838e-01, 3.29309464e-01, 5.36704123e-01, 1.48463920e-01,
          5.36704123e-01, 5.36704123e-01, 4.77482080e-01, 4.77482080e-01,
          4.77482080e-01, 2.88572848e-01, 4.77482080e-01, 4.74626362e-01,
          4.74626362e-01, 4.74626362e-01, 3.06885362e-01, 4.74626362e-01,
          1.81414023e-01, 4.59833294e-01, 1.99612424e-01, 5.95755160e-01,
          5.95755160e-01, 3.95814151e-01, 5.14594138e-01, 5.14594138e-01,
          2.09213719e-01, 5.14594138e-01, 1.62116215e-01, 4.96647745e-01,
          4.96647745e-01, 4.78310764e-01, 4.96647745e-01, 6.26171157e-02,
          4.97771949e-01, 4.97771949e-01, 4.97771949e-01, 4.97771949e-01 ]
      - [ 3.76185328e-01, 4.62025315e-01, 4.62025315e-01, 4.62025315e-01,
          4.62025315e-01, 5.57680130e-01, 4.25963640e-01, 5.68512857e-01,
          3.59291196e-01, 2.22651780e-01, 4.34572458e-01, 4.28392470e-01,
          5.48417568e-01, 5.48417568e-01, 1.43619165e-01, 4.46215838e-01,
          4.46215838e-01, 4.46215838e-01, 4.46215838e-01, 4.46215838e-01,
          5.14029860e-01, 1.19218707e-01, 5.14029860e-01, 4.33558643e-01,
          5.14029860e-01, 5.48942685e-01, 5.98304048e-02, 5.48942685e-01,
          2.94829428e-01, 5.48942685e-01, 4.55328435e-01, 5.17149568e-01,
          3.44368368e-01, 3.66106957e-01, 5.17149568e-01, 4.76738602e-01,
          4.76738602e-01, 4.76738602e-01, 2.93461412e-01, 4.76738602e-01,
          4.48679358e-01, 4.48679358e-01, 4.48679358e-01, 4.36194509e-01,
          4.48679358e-01, 4.55328435e-01, 5.17149568e-01, 3.44368368e-01,
          3.66106957e-01, 5.17149568e-01, 4.76738602e-01, 4.76738602e-01,
          4.76738602e-01, 2.93461412e-01, 4.76738602e-01, 4.48679358e-01,
          4.48679358e-01, 4.48679358e-01, 4.36194509e-01, 4.48679358e-01,
          3.91875505e-01, 4.85426277e-01, 3.66972834e-01, 4.85426277e-01,
          4.85426277e-01, 1.92910314e-01, 4.98858988e-01, 5.68715036e-01,
          2.47735038e-01, 5.68715036e-01, 1.85129330e-01, 5.63744009e-01,
          5.63744009e-01, 8.17067325e-02, 5.63744009e-01, 4.46215838e-01,
          4.46215838e-01, 4.46215838e-01, 4.46215838e-01, 4.46215838e-01,
          4.46215838e-01, 4.46215838e-01, 4.46215838e-01, 4.46215838e-01,
          4.46215838e-01, 4.66371536e-01, 4.86319095e-01, 3.17550719e-01,
          1.06654868e-01, 6.53645098e-01, 4.34572458e-01, 4.28392470e-01,
          5.48417568e-01, 5.48417568e-01, 1.43619165e-01, 5.11628091e-01,
          8.69493186e-02, 5.11628091e-01, 5.11628091e-01, 4.49488968e-01,
          4.46215838e-01, 4.46215838e-01, 4.46215838e-01, 4.46215838e-01,
          4.46215838e-01, 5.48942685e-01, 5.98304048e-02, 5.48942685e-01,
          2.94829428e-01, 5.48942685e-01, 5.59135139e-01, 1.96265370e-01,
          5.59135139e-01, 1.34165064e-01, 5.59135139e-01, 5.30979335e-01,
          1.98062345e-01, 3.31136435e-01, 5.30979335e-01, 5.30979335e-01,
          4.48679358e-01, 4.48679358e-01, 4.48679358e-01, 4.36194509e-01,
          4.48679358e-01, 4.97357935e-01, 4.97357935e-01, 4.97357935e-01,
          7.46526271e-02, 4.97357935e-01, 3.81900311e-01, 4.03272480e-01,
          3.50521266e-01, 5.30734479e-01, 5.30734479e-01, 4.48679358e-01,
          4.48679358e-01, 4.48679358e-01, 4.36194509e-01, 4.48679358e-01,
          4.97357935e-01, 4.97357935e-01, 4.97357935e-01, 7.46526271e-02,
          4.97357935e-01, 3.81900311e-01, 4.03272480e-01, 3.50521266e-01,
          5.30734479e-01, 5.30734479e-01, 1.85129330e-01, 5.63744009e-01,
          5.63744009e-01, 8.17067325e-02, 5.63744009e-01, 4.32904005e-01,
          5.18642366e-01, 5.18642366e-01, 2.10905634e-02, 5.18642366e-01,
          4.09085631e-01, 4.70535725e-01, 4.04645085e-01, 4.70535725e-01,
          4.70535725e-01, 4.66371536e-01, 4.86319095e-01, 3.17550719e-01,
          1.06654868e-01, 6.53645098e-01, 2.59975791e-01, 5.54324269e-01,
          5.54324269e-01, 7.10699186e-02, 5.54324269e-01, 3.72992218e-01,
          4.62670326e-01, 4.62670326e-01, 4.62670326e-01, 4.62670326e-01 ]
      - [ 4.55074936e-01, 4.55074936e-01, 4.55074936e-01, 4.55074936e-01,
          4.08756256e-01, 3.18242371e-01, 3.76977473e-01, 5.99527299e-01,
          5.99527299e-01, 1.78206936e-01, 4.46215838e-01, 4.46215838e-01,
          4.46215838e-01, 4.46215838e-01, 4.46215838e-01, 5.35819173e-01,
          2.69197971e-01, 2.46728539e-01, 5.35819173e-01, 5.35819173e-01,
          5.15346706e-01, 1.13244124e-01, 4.30444360e-01, 5.15346706e-01,
          5.15346706e-01, 5.35382509e-01, 1.86722517e-01, 5.35382509e-01,
          5.35382509e-01, 3.16045463e-01, 4.71792758e-01, 3.23935390e-01,
          4.71792758e-01, 4.71792758e-01, 4.71792758e-01, 5.46892047e-01,
          3.45231712e-01, 5.46892047e-01, 5.12302935e-01, 1.21316239e-01,
          4.95760977e-01, 1.09237596e-01, 4.95760977e-01, 4.95760977e-01,
          4.95760977e-01, 4.71792758e-01, 3.23935390e-01, 4.71792758e-01,
          4.71792758e-01, 4.71792758e-01, 5.46892047e-01, 3.45231712e-01,
          5.46892047e-01, 5.12302935e-01, 1.21316239e-01, 4.95760977e-01,
          1.09237596e-01, 4.95760977e-01, 4.95760977e-01, 4.95760977e-01,
          3.73214871e-01, 4.38111007e-01, 4.42876846e-01, 4.83631611e-01,
          4.83631611e-01, 5.16274750e-01, 5.16274750e-01, 5.16274750e-01,
          3.28283817e-01, 2.95727611e-01, 4.46215838e-01, 4.46215838e-01,
          4.46215838e-01, 4.46215838e-01, 4.46215838e-01, 1.64054677e-01,
          5.01087308e-01, 8.32201466e-02, 6.26574993e-01, 5.62334180e-01,
          4.89088207e-01, 4.89088207e-01, 1.95667997e-01, 4.89088207e-01,
          4.89088207e-01, 4.95762348e-01, 4.95762348e-01, 4.95762348e-01,
          1.09211937e-01, 4.95762348e-01, 4.46215838e-01, 4.46215838e-01,
          4.46215838e-01, 4.46215838e-01, 4.46215838e-01, 4.79080021e-01,
          4.27039832e-01, 4.79080021e-01, 4.79080021e-01, 3.52560520e-01,
          4.64535922e-01, 4.64535922e-01, 3.63573313e-01, 4.64535922e-01,
          4.64535922e-01, 5.35382509e-01, 1.86722517e-01, 5.35382509e-01,
          5.35382509e-01, 3.16045463e-01, 5.86490095e-01, 2.42166042e-01,
          5.86490095e-01, 4.80415881e-01, 1.29455239e-01, 4.46215838e-01,
          4.46215838e-01, 4.46215838e-01, 4.46215838e-01, 4.46215838e-01,
          4.95760977e-01, 1.09237596e-01, 4.95760977e-01, 4.95760977e-01,
          4.95760977e-01, 4.46215838e-01, 4.46215838e-01, 4.46215838e-01,
          4.46215838e-01, 4.46215838e-01, 4.46215838e-01, 4.46215838e-01,
          4.46215838e-01, 4.46215838e-01, 4.46215838e-01, 4.95760977e-01,
          1.09237596e-01, 4.95760977e-01, 4.95760977e-01, 4.95760977e-01,
          4.46215838e-01, 4.46215838e-01, 4.46215838e-01, 4.46215838e-01,
          4.46215838e-01, 4.46215838e-01, 4.46215838e-01, 4.46215838e-01,
          4.46215838e-01, 4.46215838e-01, 4.46215838e-01, 4.46215838e-01,
          4.46215838e-01, 4.46215838e-01, 4.46215838e-01, 4.90194142e-01,
          4.90194142e-01, 4.90194142e-01, 1.84236154e-01, 4.90194142e-01,
          4.72557306e-01, 4.72557306e-01, 3.19434434e-01, 4.72557306e-01,
          4.72557306e-01, 4.95762348e-01, 4.95762348e-01, 4.95762348e-01,
          1.09211937e-01, 4.95762348e-01, 4.98523921e-01, 4.98523921e-01,
          4.98523921e-01, 3.02755591e-02, 4.98523921e-01, 3.29038084e-01,
          4.70911473e-01, 4.70911473e-01, 4.70911473e-01, 4.70911473e-01 ]
      - [ 4.98637825e-01, 4.98637825e-01, 4.98637825e-01, 2.14714594e-02,
          4.98637825e-01, 5.31032979e-01, 3.85115415e-01, 5.31032979e-01,
          1.98679827e-02, 5.31032979e-01, 5.06303489e-01, 4.73536789e-01,
          5.06303489e-01, 4.09494266e-02, 5.06303489e-01, 4.98748690e-01,
          4.98748690e-01, 4.98748690e-01, 4.22107242e-03, 4.98748690e-01,
          5.40927827e-01, 3.41679305e-01, 5.40927827e-01, 6.68022456e-03,
          5.40927827e-01, 5.49054563e-01, 2.95666665e-01, 5.49054563e-01,
          5.21106943e-02, 5.49054563e-01, 5.69904268e-01, 5.69904268e-01,
          5.69904268e-01, 1.10776447e-01, 8.75489637e-02, 5.22994399e-02,
          5.94546735e-01, 7.11896360e-01, 3.54522109e-01, 6.47330582e-02,
          8.74756128e-02, 3.10774863e-01, 7.72572815e-01, 4.50546235e-01,
          2.96977431e-01, 5.69904268e-01, 5.69904268e-01, 5.69904268e-01,
          1.10776447e-01, 8.75489637e-02, 5.22994399e-02, 5.94546735e-01,
          7.11896360e-01, 3.54522109e-01, 6.47330582e-02, 8.74756128e-02,
          3.10774863e-01, 7.72572815e-01, 4.50546235e-01, 2.96977431e-01,
          4.89919960e-01, 4.89919960e-01, 4.89919960e-01, 4.89919960e-01,
          1.87138036e-01, 4.83817726e-01, 4.83817726e-01, 4.83817726e-01,
          4.83817726e-01, 2.42588520e-01, 4.96298462e-01, 9.89674106e-02,
          4.96298462e-01, 4.96298462e-01, 4.96298462e-01, 5.11784494e-01,
          1.84272438e-01, 5.11784494e-01, 4.18523908e-01, 5.11784494e-01,
          4.53180999e-01, 4.17110562e-01, 4.53180999e-01, 4.53180999e-01,
          4.53180999e-01, 4.74566668e-01, 3.07255477e-01, 4.74566668e-01,
          4.74566668e-01, 4.74566668e-01, 5.06303489e-01, 4.73536789e-01,
          5.06303489e-01, 4.09494266e-02, 5.06303489e-01, 3.71381342e-01,
          5.24718940e-01, 5.24718940e-01, 1.75629586e-01, 5.24718940e-01,
          3.47539306e-01, 6.32896602e-01, 6.32896602e-01, 1.34661227e-01,
          2.31619403e-01, 5.49054563e-01, 2.95666665e-01, 5.49054563e-01,
          5.21106943e-02, 5.49054563e-01, 3.44774604e-01, 8.87677819e-02,
          5.37859797e-01, 5.37859797e-01, 5.37859797e-01, 1.01878271e-01,
          4.96151537e-01, 4.96151537e-01, 4.96151537e-01, 4.96151537e-01,
          8.74756128e-02, 3.10774863e-01, 7.72572815e-01, 4.50546235e-01,
          2.96977431e-01, 4.01329286e-02, 4.09473687e-01, 7.04391599e-01,
          3.90351504e-01, 4.18506116e-01, 1.68765843e-01, 5.12793958e-01,
          5.12793958e-01, 5.12793958e-01, 4.21335816e-01, 8.74756128e-02,
          3.10774863e-01, 7.72572815e-01, 4.50546235e-01, 2.96977431e-01,
          4.01329286e-02, 4.09473687e-01, 7.04391599e-01, 3.90351504e-01,
          4.18506116e-01, 1.68765843e-01, 5.12793958e-01, 5.12793958e-01,
          5.12793958e-01, 4.21335816e-01, 4.96298462e-01, 9.89674106e-02,
          4.96298462e-01, 4.96298462e-01, 4.96298462e-01, 4.93858159e-01,
          1.39584705e-01, 4.93858159e-01, 4.93858159e-01, 4.93858159e-01,
          5.40043771e-01, 5.40043771e-01, 3.31822574e-01, 9.77686495e-02,
          5.40043771e-01, 4.74566668e-01, 3.07255477e-01, 4.74566668e-01,
          4.74566668e-01, 4.74566668e-01, 5.52636147e-01, 1.48956880e-01,
          5.52636147e-01, 2.36797094e-01, 5.52636147e-01, 5.27278602e-01,
          1.10782728e-01, 5.27278602e-01, 3.85218322e-01, 5.27278602e-01 ]
      - [ 4.46215838e-01, 4.46215838e-01, 4.46215838e-01, 4.46215838e-01,
          4.46215838e-01, 4.46215838e-01, 4.46215838e-01, 4.46215838e-01,
          4.46215838e-01, 4.46215838e-01, 4.46215838e-01, 4.46215838e-01,
          4.46215838e-01, 4.46215838e-01, 4.46215838e-01, 4.46215838e-01,
          4.46215838e-01, 4.46215838e-01, 4.46215838e-01, 4.46215838e-01,
          4.73010838e-01, 4.73010838e-01, 4.73010838e-01, 4.73010838e-01,
          3.16731006e-01, 5.15554488e-01, 3.79407257e-01, 5.15554488e-01,
          5.15554488e-01, 2.31326371e-01, 4.55326408e-01, 4.43098336e-01,
          4.55326408e-01, 4.55326408e-01, 4.20891196e-01, 4.89128560e-01,
          4.50359941e-01, 4.89128560e-01, 4.89128560e-01, 2.73039371e-01,
          4.89418268e-01, 1.92329690e-01, 4.89418268e-01, 4.89418268e-01,
          4.89418268e-01, 4.55326408e-01, 4.43098336e-01, 4.55326408e-01,
          4.55326408e-01, 4.20891196e-01, 4.89128560e-01, 4.50359941e-01,
          4.89128560e-01, 4.89128560e-01, 2.73039371e-01, 4.89418268e-01,
          1.92329690e-01, 4.89418268e-01, 4.89418268e-01, 4.89418268e-01,
          4.46215838e-01, 4.46215838e-01, 4.46215838e-01, 4.46215838e-01,
          4.46215838e-01, 4.80604172e-01, 4.80604172e-01, 4.80604172e-01,
          2.66979992e-01, 4.80604172e-01, 4.46215838e-01, 4.46215838e-01,
          4.46215838e-01, 4.46215838e-01, 4.46215838e-01, 4.46215838e-01,
          4.46215838e-01, 4.46215838e-01, 4.46215838e-01, 4.46215838e-01,
          4.61237490e-01, 3.80043149e-01, 4.61237490e-01, 4.61237490e-01,
          4.61237490e-01, 4.63140100e-01, 4.63140100e-01, 4.63140100e-01,
          3.70646745e-01, 4.63140100e-01, 4.46215838e-01, 4.46215838e-01,
          4.46215838e-01, 4.46215838e-01, 4.46215838e-01, 4.72586244e-01,
          4.30421591e-01, 4.72586244e-01, 4.72586244e-01, 3.74170631e-01,
          4.46215838e-01, 4.46215838e-01, 4.46215838e-01, 4.46215838e-01,
          4.46215838e-01, 5.15554488e-01, 3.79407257e-01, 5.15554488e-01,
          5.15554488e-01, 2.31326371e-01, 5.44951797e-01, 2.06933141e-01,
          5.44951797e-01, 5.25020480e-01, 2.86610007e-01, 4.56363261e-01,
          4.46419805e-01, 4.13942933e-01, 4.56363261e-01, 4.56363261e-01,
          4.89418268e-01, 1.92329690e-01, 4.89418268e-01, 4.89418268e-01,
          4.89418268e-01, 4.90788192e-01, 2.80074269e-01, 4.90788192e-01,
          4.78513181e-01, 4.53801215e-01, 4.56882387e-01, 4.00587618e-01,
          4.56882387e-01, 4.56882387e-01, 4.56882387e-01, 4.89418268e-01,
          1.92329690e-01, 4.89418268e-01, 4.89418268e-01, 4.89418268e-01,
          4.90788192e-01, 2.80074269e-01, 4.90788192e-01, 4.78513181e-01,
          4.53801215e-01, 4.56882387e-01, 4.00587618e-01, 4.56882387e-01,
          4.56882387e-01, 4.56882387e-01, 4.46215838e-01, 4.46215838e-01,
          4.46215838e-01, 4.46215838e-01, 4.46215838e-01, 4.97527421e-01,
          4.97527421e-01, 4.97527421e-01, 6.99778870e-02, 4.97527421e-01,
          4.46215838e-01, 4.46215838e-01, 4.46215838e-01, 4.46215838e-01,
          4.46215838e-01, 4.63140100e-01, 4.63140100e-01, 4.63140100e-01,
          3.70646745e-01, 4.63140100e-01, 4.01053190e-01, 5.24487674e-01,
          5.24487674e-01, 9.30403545e-02, 5.24487674e-01, 2.60788709e-01,
          4.81451035e-01, 4.81451035e-01, 4.81451035e-01, 4.81451035e-01 ]
      - [ 4.46215838e-01, 4.46215838e-01, 4.46215838e-01, 4.46215838e-01,
          4.46215838e-01, 4.80008751e-01, 4.80008751e-01, 4.80008751e-01,
          2.71241575e-01, 4.80008751e-01, 5.65971076e-01, 7.83099905e-02,
          5.65971076e-01, 1.65063888e-01, 5.65971076e-01, 4.75870758e-01,
          4.75870758e-01, 4.75870758e-01, 2.99056798e-01, 4.75870758e-01,
          4.46215838e-01, 4.46215838e-01, 4.46215838e-01, 4.46215838e-01,
          4.46215838e-01, 4.92008775e-01, 1.63692996e-01, 4.92008775e-01,
          4.92008775e-01, 4.92008775e-01, 4.46215838e-01, 4.46215838e-01,
          4.46215838e-01, 4.46215838e-01, 4.46215838e-01, 3.27744901e-01,
          4.71136242e-01, 4.71136242e-01, 4.71136242e-01, 4.71136242e-01,
          4.46215838e-01, 4.46215838e-01, 4.46215838e-01, 4.46215838e-01,
          4.46215838e-01, 4.46215838e-01, 4.46215838e-01, 4.46215838e-01,
          4.46215838e-01, 4.46215838e-01, 3.27744901e-01, 4.71136242e-01,
          4.71136242e-01, 4.71136242e-01, 4.71136242e-01, 4.46215838e-01,
          4.46215838e-01, 4.46215838e-01, 4.46215838e-01, 4.46215838e-01,
          4.13216710e-01, 5.96143007e-01, 5.96143007e-01, 1.81241199e-01,
          2.82273084e-01, 2.66992599e-01, 4.75254923e-01, 2.26501927e-01,
          5.68273723e-01, 5.68273723e-01, 4.55063671e-01, 4.55063671e-01,
          4.14803088e-01, 4.49604422e-01, 4.55063671e-01, 3.49222302e-01,
          5.24467885e-01, 5.24467885e-01, 2.18188867e-01, 5.24467885e-01,
          4.28869575e-01, 4.50436354e-01, 4.50436354e-01, 4.50436354e-01,
          4.50436354e-01, 4.67013329e-01, 4.67013329e-01, 4.67013329e-01,
          3.50613087e-01, 4.67013329e-01, 5.65971076e-01, 7.83099905e-02,
          5.65971076e-01, 1.65063888e-01, 5.65971076e-01, 4.99250233e-01,
          1.00654654e-01, 5.83316863e-01, 2.32972190e-01, 5.83316863e-01,
          6.01361215e-01, 3.68386954e-01, 2.31579900e-01, 2.85283327e-01,
          6.01361215e-01, 4.92008775e-01, 1.63692996e-01, 4.92008775e-01,
          4.92008775e-01, 4.92008775e-01, 5.26282966e-01, 3.80392313e-01,
          5.26282966e-01, 1.38291895e-01, 5.26282966e-01, 4.68536288e-01,
          4.68536288e-01, 3.42366844e-01, 4.68536288e-01, 4.68536288e-01,
          4.46215838e-01, 4.46215838e-01, 4.46215838e-01, 4.46215838e-01,
          4.46215838e-01, 4.97790486e-01, 4.97790486e-01, 4.97790486e-01,
          6.20224588e-02, 4.97790486e-01, 3.18344176e-01, 1.75675064e-01,
          2.57698372e-02, 6.55965805e-01, 6.55965805e-01, 4.46215838e-01,
          4.46215838e-01, 4.46215838e-01, 4.46215838e-01, 4.46215838e-01,
          4.97790486e-01, 4.97790486e-01, 4.97790486e-01, 6.20224588e-02,
          4.97790486e-01, 3.18344176e-01, 1.75675064e-01, 2.57698372e-02,
          6.55965805e-01, 6.55965805e-01, 4.55063671e-01, 4.55063671e-01,
          4.14803088e-01, 4.49604422e-01, 4.55063671e-01, 9.90415365e-02,
          5.62024951e-01, 5.62024951e-01, 1.92255765e-01, 5.62024951e-01,
          5.33705652e-02, 5.00279725e-01, 5.23120821e-01, 5.23120821e-01,
          4.40836161e-01, 4.67013329e-01, 4.67013329e-01, 4.67013329e-01,
          3.50613087e-01, 4.67013329e-01, 1.83301762e-01, 3.32998574e-01,
          5.32352030e-01, 5.32352030e-01, 5.32352030e-01, 4.46215838e-01,
          4.46215838e-01, 4.46215838e-01, 4.46215838e-01, 4.46215838e-01 ]
      - [ 4.72468615e-01, 3.19960058e-01, 4.72468615e-01, 4.72468615e-01,
          4.72468615e-01, 5.08099735e-01, 2.97737658e-01, 3.63017559e-01,
          5.08099735e-01, 5.08099735e-01, 4.84770626e-01, 2.34835684e-01,
          4.84770626e-01, 4.84770626e-01, 4.84770626e-01, 4.46215838e-01,
          4.46215838e-01, 4.46215838e-01, 4.46215838e-01, 4.46215838e-01,
          5.30097485e-01, 9.89318192e-02, 5.50601363e-01, 5.50601363e-01,
          3.12069148e-01, 5.55042267e-01, 1.74755469e-01, 5.55042267e-01,
          5.55042267e-01, 1.99253559e-01, 3.46942365e-01, 2.92344272e-01,
          5.13895452e-01, 5.13895452e-01, 5.10740995e-01, 4.72763538e-01,
          4.29368883e-01, 4.72763538e-01, 4.72763538e-01, 3.74705613e-01,
          4.97183174e-01, 7.91823491e-02, 4.97183174e-01, 4.97183174e-01,
          4.97183174e-01, 3.46942365e-01, 2.92344272e-01, 5.13895452e-01,
          5.13895452e-01, 5.10740995e-01, 4.72763538e-01, 4.29368883e-01,
          4.72763538e-01, 4.72763538e-01, 3.74705613e-01, 4.97183174e-01,
          7.91823491e-02, 4.97183174e-01, 4.97183174e-01, 4.97183174e-01,
          4.54301983e-01, 1.23824373e-01, 3.21480304e-01, 5.78425348e-01,
          5.78425348e-01, 4.87049967e-01, 4.82574850e-01, 4.87049967e-01,
          2.24953473e-01, 4.87049967e-01, 4.85304207e-01, 4.85304207e-01,
          4.85304207e-01, 2.30373994e-01, 4.85304207e-01, 4.46215838e-01,
          4.46215838e-01, 4.46215838e-01, 4.46215838e-01, 4.46215838e-01,
          4.81689185e-01, 2.59019285e-01, 4.81689185e-01, 4.81689185e-01,
          4.81689185e-01, 4.86784935e-01, 2.17484966e-01, 4.86784935e-01,
          4.86784935e-01, 4.86784935e-01, 4.84770626e-01, 2.34835684e-01,
          4.84770626e-01, 4.84770626e-01, 4.84770626e-01, 5.29477000e-01,
          8.73313546e-02, 5.29477000e-01, 5.29477000e-01, 3.82161856e-01,
          5.07284403e-01, 3.41218948e-01, 3.26329350e-01, 5.07284403e-01,
          5.07284403e-01, 5.55042267e-01, 1.74755469e-01, 5.55042267e-01,
          5.55042267e-01, 1.99253559e-01, 4.85600919e-01, 4.85600919e-01,
          4.85600919e-01, 4.85600919e-01, 2.27853045e-01, 3.94910991e-01,
          1.82059541e-01, 4.04172450e-01, 5.66518843e-01, 5.66518843e-01,
          4.97183174e-01, 7.91823491e-02, 4.97183174e-01, 4.97183174e-01,
          4.97183174e-01, 4.81827497e-01, 4.81827497e-01, 4.81827497e-01,
          2.57985622e-01, 4.81827497e-01, 4.59887594e-01, 4.59887594e-01,
          3.86548787e-01, 4.59887594e-01, 4.59887594e-01, 4.97183174e-01,
          7.91823491e-02, 4.97183174e-01, 4.97183174e-01, 4.97183174e-01,
          4.81827497e-01, 4.81827497e-01, 4.81827497e-01, 2.57985622e-01,
          4.81827497e-01, 4.59887594e-01, 4.59887594e-01, 3.86548787e-01,
          4.59887594e-01, 4.59887594e-01, 4.85304207e-01, 4.85304207e-01,
          4.85304207e-01, 2.30373994e-01, 4.85304207e-01, 4.97099876e-01,
          4.97099876e-01, 4.97099876e-01, 8.12522322e-02, 4.97099876e-01,
          3.93770963e-01, 2.08171576e-01, 4.45266038e-01, 5.46757281e-01,
          5.46757281e-01, 4.86784935e-01, 2.17484966e-01, 4.86784935e-01,
          4.86784935e-01, 4.86784935e-01, 4.36878055e-01, 4.12083656e-01,
          5.49261630e-01, 1.74536586e-01, 5.49261630e-01, 4.91487890e-01,
          1.69852123e-01, 4.91487890e-01, 4.91487890e-01, 4.91487890e-01 ]
      - [ 5.18351614e-01, 3.00591469e-01, 5.18351614e-01, 3.13692033e-01,
          5.18351614e-01, 4.88678992e-01, 2.50208288e-01, 4.88678992e-01,
          4.64858621e-01, 4.88678992e-01, 4.89033133e-01, 1.96219489e-01,
          4.89033133e-01, 4.89033133e-01, 4.89033133e-01, 4.61925477e-01,
          4.61925477e-01, 4.61925477e-01, 4.61925477e-01, 3.76677036e-01,
          4.54932034e-01, 4.09393668e-01, 4.54932034e-01, 4.54932034e-01,
          4.54932034e-01, 5.11417210e-01, 1.35794312e-01, 4.37960833e-01,
          5.11417210e-01, 5.11417210e-01, 4.46215838e-01, 4.46215838e-01,
          4.46215838e-01, 4.46215838e-01, 4.46215838e-01, 5.24237812e-01,
          5.24237812e-01, 5.24237812e-01, 3.35291892e-01, 2.40557909e-01,
          4.93683189e-01, 1.42045125e-01, 4.93683189e-01, 4.93683189e-01,
          4.93683189e-01, 4.46215838e-01, 4.46215838e-01, 4.46215838e-01,
          4.46215838e-01, 4.46215838e-01, 5.24237812e-01, 5.24237812e-01,
          5.24237812e-01, 3.35291892e-01, 2.40557909e-01, 4.93683189e-01,
          1.42045125e-01, 4.93683189e-01, 4.93683189e-01, 4.93683189e-01,
          5.53396404e-01, 5.53396404e-01, 2.28912726e-01, 1.52741104e-01,
          5.53396404e-01, 3.71318579e-01, 4.63005871e-01, 4.63005871e-01,
          4.63005871e-01, 4.63005871e-01, 3.55924517e-01, 5.00413239e-01,
          5.00413239e-01, 3.42169046e-01, 5.00413239e-01, 5.95851600e-01,
          5.95851600e-01, 9.38010737e-02, 4.24931198e-01, 3.07582647e-01,
          6.91136792e-02, 9.48585123e-02, 3.73381078e-01, 7.41340518e-01,
          5.38355350e-01, 4.87388931e-02, 5.73860466e-01, 5.73860466e-01,
          5.73860466e-01, 6.28224239e-02, 4.89033133e-01, 1.96219489e-01,
          4.89033133e-01, 4.89033133e-01, 4.89033133e-01, 5.57071209e-01,
          3.95668775e-01, 5.30393004e-01, 1.68001607e-01, 4.66919422e-01,
          5.65295696e-01, 5.65403625e-02, 1.80223435e-01, 5.65295696e-01,
          5.65295696e-01, 5.11417210e-01, 1.35794312e-01, 4.37960833e-01,
          5.11417210e-01, 5.11417210e-01, 5.52072942e-01, 3.38570029e-01,
          5.52072942e-01, 4.34217006e-01, 2.85908848e-01, 4.80022490e-01,
          2.71144092e-01, 4.80022490e-01, 4.80022490e-01, 4.80022490e-01,
          4.93683189e-01, 1.42045125e-01, 4.93683189e-01, 4.93683189e-01,
          4.93683189e-01, 4.46215838e-01, 4.46215838e-01, 4.46215838e-01,
          4.46215838e-01, 4.46215838e-01, 4.71443176e-01, 4.71443176e-01,
          3.25969845e-01, 4.71443176e-01, 4.71443176e-01, 4.93683189e-01,
          1.42045125e-01, 4.93683189e-01, 4.93683189e-01, 4.93683189e-01,
          4.46215838e-01, 4.46215838e-01, 4.46215838e-01, 4.46215838e-01,
          4.46215838e-01, 4.71443176e-01, 4.71443176e-01, 3.25969845e-01,
          4.71443176e-01, 4.71443176e-01, 3.55924517e-01, 5.00413239e-01,
          5.00413239e-01, 3.42169046e-01, 5.00413239e-01, 4.95693207e-01,
          4.95693207e-01, 4.95693207e-01, 1.10463724e-01, 4.95693207e-01,
          4.18371141e-01, 3.51006150e-01, 4.81991053e-01, 4.81991053e-01,
          4.81991053e-01, 4.87388931e-02, 5.73860466e-01, 5.73860466e-01,
          5.73860466e-01, 6.28224239e-02, 3.58931497e-02, 7.03986228e-01,
          7.03986228e-01, 1.86994988e-02, 1.18895769e-02, 5.12063084e-03,
          5.52063167e-01, 5.52063167e-01, 5.52063167e-01, 2.83089221e-01 ]
      - [ 4.46215838e-01, 4.46215838e-01, 4.46215838e-01, 4.46215838e-01,
          4.46215838e-01, 4.46215838e-01, 4.46215838e-01, 4.46215838e-01,
          4.46215838e-01, 4.46215838e-01, 3.26814353e-01, 4.71297413e-01,
          4.71297413e-01, 4.71297413e-01, 4.71297413e-01, 4.89472628e-01,
          1.10185057e-01, 4.97763127e-01, 4.97763127e-01, 4.97763127e-01,
          4.50860351e-01, 4.50860351e-01, 4.50860351e-01, 4.27078664e-01,
          4.50860351e-01, 4.42710906e-01, 4.57038850e-01, 4.57038850e-01,
          4.15678263e-01, 4.57038850e-01, 1.30165070e-02, 1.68432773e-04,
          6.16842648e-03, 7.04542220e-01, 7.04542220e-01, 4.73500967e-01,
          4.73500967e-01, 4.73500967e-01, 4.33175743e-01, 3.67450267e-01,
          4.52638686e-01, 4.52638686e-01, 4.52638686e-01, 4.19465750e-01,
          4.52638686e-01, 1.30165070e-02, 1.68432773e-04, 6.16842648e-03,
          7.04542220e-01, 7.04542220e-01, 4.73500967e-01, 4.73500967e-01,
          4.73500967e-01, 4.33175743e-01, 3.67450267e-01, 4.52638686e-01,
          4.52638686e-01, 4.52638686e-01, 4.19465750e-01, 4.52638686e-01,
          2.32056230e-02, 4.31784093e-01, 5.18922448e-01, 5.18922448e-01,
          5.18922448e-01, 4.86587852e-01, 4.86587852e-01, 4.23174083e-01,
          3.25208426e-01, 4.86587852e-01, 4.46215838e-01, 4.46215838e-01,
          4.46215838e-01, 4.46215838e-01, 4.46215838e-01, 4.47088704e-02,
          4.98253167e-01, 4.98253167e-01, 4.98253167e-01, 4.98253167e-01,
          3.49454820e-01, 5.06660998e-01, 5.06660998e-01, 3.20476353e-01,
          5.06660998e-01, 4.46215838e-01, 4.46215838e-01, 4.46215838e-01,
          4.46215838e-01, 4.46215838e-01, 3.26814353e-01, 4.71297413e-01,
          4.71297413e-01, 4.71297413e-01, 4.71297413e-01, 4.46215838e-01,
          4.46215838e-01, 4.46215838e-01, 4.46215838e-01, 4.46215838e-01,
          4.46215838e-01, 4.46215838e-01, 4.46215838e-01, 4.46215838e-01,
          4.46215838e-01, 4.42710906e-01, 4.57038850e-01, 4.57038850e-01,
          4.15678263e-01, 4.57038850e-01, 4.46215838e-01, 4.46215838e-01,
          4.46215838e-01, 4.46215838e-01, 4.46215838e-01, 1.65989101e-01,
          5.47198534e-01, 5.47198534e-01, 5.47198534e-01, 2.62115449e-01,
          4.52638686e-01, 4.52638686e-01, 4.52638686e-01, 4.19465750e-01,
          4.52638686e-01, 4.36032087e-01, 4.16988015e-01, 4.58771765e-01,
          4.58771765e-01, 4.58771765e-01, 4.54905838e-01, 4.54905838e-01,
          4.54905838e-01, 4.54905838e-01, 4.09510434e-01, 4.52638686e-01,
          4.52638686e-01, 4.52638686e-01, 4.19465750e-01, 4.52638686e-01,
          4.36032087e-01, 4.16988015e-01, 4.58771765e-01, 4.58771765e-01,
          4.58771765e-01, 4.54905838e-01, 4.54905838e-01, 4.54905838e-01,
          4.54905838e-01, 4.09510434e-01, 4.46215838e-01, 4.46215838e-01,
          4.46215838e-01, 4.46215838e-01, 4.46215838e-01, 4.46215838e-01,
          4.46215838e-01, 4.46215838e-01, 4.46215838e-01, 4.46215838e-01,
          4.58997399e-01, 4.58997399e-01, 3.90769541e-01, 4.58997399e-01,
          4.58997399e-01, 4.46215838e-01, 4.46215838e-01, 4.46215838e-01,
          4.46215838e-01, 4.46215838e-01, 4.78475302e-01, 2.81898230e-01,
          4.78475302e-01, 4.78475302e-01, 4.78475302e-01, 4.93815899e-01,
          4.25494313e-01, 4.93815899e-01, 4.93815899e-01, 2.87158698e-01 ]
      - [ 5.06425321e-01, 1.78116903e-01, 4.40246403e-01, 5.06425321e-01,
          5.06425321e-01, 4.83136803e-01, 3.09351623e-01, 4.83136803e-01,
          4.83136803e-01, 4.46332365e-01, 6.30964637e-01, 1.57440871e-01,
          3.88105899e-01, 1.48505390e-01, 6.30964637e-01, 4.75818783e-01,
          4.75818783e-01, 4.75818783e-01, 4.75818783e-01, 2.99388349e-01,
          4.46215838e-01, 4.46215838e-01, 4.46215838e-01, 4.46215838e-01,
          4.46215838e-01, 5.11245012e-01, 5.11245012e-01, 5.11245012e-01,
          1.46774948e-01, 4.35013652e-01, 6.41263127e-01, 6.41263127e-01,
          9.85122994e-02, 3.65282118e-01, 1.67407408e-01, 4.96173352e-01,
          4.96173352e-01, 1.01451695e-01, 4.96173352e-01, 4.96173352e-01,
          3.99040341e-01, 4.59350497e-01, 4.59350497e-01, 4.50743765e-01,
          4.59350497e-01, 6.41263127e-01, 6.41263127e-01, 9.85122994e-02,
          3.65282118e-01, 1.67407408e-01, 4.96173352e-01, 4.96173352e-01,
          1.01451695e-01, 4.96173352e-01, 4.96173352e-01, 3.99040341e-01,
          4.59350497e-01, 4.59350497e-01, 4.50743765e-01, 4.59350497e-01,
          2.55337298e-01, 6.15843356e-01, 4.52142805e-01, 3.30889732e-01,
          4.85252202e-01, 1.38077542e-01, 5.03877163e-01, 5.03877163e-01,
          4.62845057e-01, 5.03877163e-01, 4.91685718e-01, 4.45112586e-01,
          4.91685718e-01, 2.67767698e-01, 4.91685718e-01, 3.41953456e-01,
          4.68611568e-01, 4.68611568e-01, 4.68611568e-01, 4.68611568e-01,
          1.07815579e-01, 6.30306542e-01, 6.30306542e-01, 4.97004241e-02,
          4.30162668e-01, 2.22939685e-01, 4.74083126e-01, 7.72103429e-01,
          2.32328430e-01, 2.60224611e-01, 6.30964637e-01, 1.57440871e-01,
          3.88105899e-01, 1.48505390e-01, 6.30964637e-01, 6.97224557e-01,
          4.86657992e-02, 9.76488963e-02, 9.42981988e-02, 6.97224557e-01,
          4.55577910e-01, 4.55577910e-01, 4.55577910e-01, 4.06502634e-01,
          4.55577910e-01, 5.11245012e-01, 5.11245012e-01, 5.11245012e-01,
          1.46774948e-01, 4.35013652e-01, 4.45353419e-01, 4.01944250e-01,
          2.22360656e-01, 4.29697633e-01, 6.32221878e-01, 6.45647794e-02,
          1.81705043e-01, 1.26676500e-01, 6.85537755e-01, 6.85537755e-01,
          3.99040341e-01, 4.59350497e-01, 4.59350497e-01, 4.50743765e-01,
          4.59350497e-01, 2.00350419e-01, 5.96730709e-01, 5.96730709e-01,
          3.68195802e-01, 3.25819135e-01, 6.46489635e-02, 2.10564822e-01,
          2.62042016e-01, 6.61894679e-01, 6.61894679e-01, 3.99040341e-01,
          4.59350497e-01, 4.59350497e-01, 4.50743765e-01, 4.59350497e-01,
          2.00350419e-01, 5.96730709e-01, 5.96730709e-01, 3.68195802e-01,
          3.25819135e-01, 6.46489635e-02, 2.10564822e-01, 2.62042016e-01,
          6.61894679e-01, 6.61894679e-01, 4.91685718e-01, 4.45112586e-01,
          4.91685718e-01, 2.67767698e-01, 4.91685718e-01, 4.46215838e-01,
          4.46215838e-01, 4.46215838e-01, 4.46215838e-01, 4.46215838e-01,
          2.42382362e-01, 5.32882869e-01, 5.32882869e-01, 5.32882869e-01,
          2.89890587e-01, 2.22939685e-01, 4.74083126e-01, 7.72103429e-01,
          2.32328430e-01, 2.60224611e-01, 1.72744259e-01, 8.15298557e-02,
          5.67226052e-01, 5.67226052e-01, 5.60675859e-01, 4.46215838e-01,
          4.46215838e-01, 4.46215838e-01, 4.46215838e-01, 4.46215838e-01 ]
      - [ 4.52926397e-01, 4.24015880e-01, 4.47503537e-01, 4.52926397e-01,
          4.52926397e-01, 4.46215838e-01, 4.46215838e-01, 4.46215838e-01,
          4.46215838e-01, 4.46215838e-01, 4.91627932e-01, 4.91627932e-01,
          1.68219164e-01, 4.91627932e-01, 4.91627932e-01, 4.59475249e-01,
          4.44167316e-01, 4.05922979e-01, 4.59475249e-01, 4.59475249e-01,
          5.72911084e-01, 5.72911084e-01, 2.13850513e-01, 1.49958983e-01,
          5.19235313e-01, 4.98292655e-01, 2.95769423e-01, 4.98292655e-01,
          4.98292655e-01, 4.03307706e-01, 5.26177764e-01, 5.26177764e-01,
          5.26177764e-01, 8.42130035e-02, 3.96313429e-01, 4.49264675e-01,
          4.33770955e-01, 4.49264675e-01, 4.49264675e-01, 4.49264675e-01,
          4.56945270e-01, 4.00299698e-01, 4.56945270e-01, 4.56945270e-01,
          4.56945270e-01, 5.26177764e-01, 5.26177764e-01, 5.26177764e-01,
          8.42130035e-02, 3.96313429e-01, 4.49264675e-01, 4.33770955e-01,
          4.49264675e-01, 4.49264675e-01, 4.49264675e-01, 4.56945270e-01,
          4.00299698e-01, 4.56945270e-01, 4.56945270e-01, 4.56945270e-01,
          4.25213277e-01, 4.51299727e-01, 4.51299727e-01, 4.51299727e-01,
          4.51299727e-01, 1.18422788e-02, 6.56219602e-01, 6.56219602e-01,
          3.49228024e-01, 1.00498162e-01, 3.99025768e-01, 5.13399303e-01,
          5.13399303e-01, 2.11930022e-01, 5.13399303e-01, 1.13201164e-01,
          4.18022156e-01, 5.18736362e-01, 5.18736362e-01, 5.18736362e-01,
          1.93800732e-01, 4.89273548e-01, 4.89273548e-01, 4.89273548e-01,
          4.89273548e-01, 5.01508117e-01, 6.03620529e-01, 6.03620529e-01,
          3.28590795e-02, 1.12549543e-01, 4.91627932e-01, 4.91627932e-01,
          1.68219164e-01, 4.91627932e-01, 4.91627932e-01, 6.90537095e-01,
          4.58947904e-02, 7.09952135e-03, 1.93046495e-01, 6.90537095e-01,
          5.75030923e-01, 4.74811532e-02, 4.68496094e-03, 5.75030923e-01,
          5.75030923e-01, 4.98292655e-01, 2.95769423e-01, 4.98292655e-01,
          4.98292655e-01, 4.03307706e-01, 5.42026758e-01, 2.61161894e-01,
          5.42026758e-01, 4.59338635e-01, 3.57496351e-01, 3.96588057e-01,
          4.57751423e-01, 4.57751423e-01, 4.57751423e-01, 4.57751423e-01,
          4.56945270e-01, 4.00299698e-01, 4.56945270e-01, 4.56945270e-01,
          4.56945270e-01, 4.91982222e-01, 4.91982222e-01, 4.91982222e-01,
          1.64012894e-01, 4.91982222e-01, 4.46215838e-01, 4.46215838e-01,
          4.46215838e-01, 4.46215838e-01, 4.46215838e-01, 4.56945270e-01,
          4.00299698e-01, 4.56945270e-01, 4.56945270e-01, 4.56945270e-01,
          4.91982222e-01, 4.91982222e-01, 4.91982222e-01, 1.64012894e-01,
          4.91982222e-01, 4.46215838e-01, 4.46215838e-01, 4.46215838e-01,
          4.46215838e-01, 4.46215838e-01, 3.99025768e-01, 5.13399303e-01,
          5.13399303e-01, 2.11930022e-01, 5.13399303e-01, 4.98660386e-01,
          4.98660386e-01, 4.98660386e-01, 1.92603115e-02, 4.98660386e-01,
          4.46215838e-01, 4.46215838e-01, 4.46215838e-01, 4.46215838e-01,
          4.46215838e-01, 5.01508117e-01, 6.03620529e-01, 6.03620529e-01,
          3.28590795e-02, 1.12549543e-01, 2.07007647e-01, 6.79817617e-01,
          6.79817617e-01, 4.51639332e-02, 1.54976025e-01, 5.18129393e-02,
          4.98081535e-01, 4.98081535e-01, 4.98081535e-01, 4.98081535e-01 ]
      - [ 4.72126812e-01, 3.84519458e-01, 4.72126812e-01, 4.72126812e-01,
          4.22750354e-01, 4.70762461e-01, 4.70762461e-01, 4.00332004e-01,
          4.70762461e-01, 4.12529260e-01, 4.61057186e-01, 3.80919546e-01,
          4.61057186e-01, 4.61057186e-01, 4.61057186e-01, 4.98140633e-01,
          3.88413370e-01, 4.98140633e-01, 4.98140633e-01, 3.15796971e-01,
          5.27895212e-01, 3.73233199e-01, 5.27895212e-01, 5.27895212e-01,
          1.39301717e-01, 5.42873085e-01, 2.15445340e-01, 5.42873085e-01,
          5.42873085e-01, 2.53038585e-01, 5.03933132e-01, 4.26720262e-01,
          5.03933132e-01, 5.03933132e-01, 2.25900814e-01, 5.24383962e-01,
          4.03819472e-01, 5.24383962e-01, 5.24383962e-01, 8.22031423e-02,
          4.84851897e-01, 2.34161973e-01, 4.84851897e-01, 4.84851897e-01,
          4.84851897e-01, 5.03933132e-01, 4.26720262e-01, 5.03933132e-01,
          5.03933132e-01, 2.25900814e-01, 5.24383962e-01, 4.03819472e-01,
          5.24383962e-01, 5.24383962e-01, 8.22031423e-02, 4.84851897e-01,
          2.34161973e-01, 4.84851897e-01, 4.84851897e-01, 4.84851897e-01,
          4.46215838e-01, 4.46215838e-01, 4.46215838e-01, 4.46215838e-01,
          4.46215838e-01, 3.88663113e-01, 5.29500663e-01, 5.29500663e-01,
          5.03990091e-02, 5.29500663e-01, 4.46215838e-01, 4.46215838e-01,
          4.46215838e-01, 4.46215838e-01, 4.46215838e-01, 4.66516316e-01,
          4.66516316e-01, 4.66516316e-01, 3.53256881e-01, 4.66516316e-01,
          4.65980023e-01, 4.65980023e-01, 4.65980023e-01, 3.56084138e-01,
          4.65980023e-01, 4.96272802e-01, 4.96272802e-01, 4.96272802e-01,
          9.94823277e-02, 4.96272802e-01, 4.61057186e-01, 3.80919546e-01,
          4.61057186e-01, 4.61057186e-01, 4.61057186e-01, 5.44785619e-01,
          1.94068253e-01, 5.44785619e-01, 5.44785619e-01, 2.57920474e-01,
          4.71989721e-01, 3.22782248e-01, 4.71989721e-01, 4.71989721e-01,
          4.71989721e-01, 5.42873085e-01, 2.15445340e-01, 5.42873085e-01,
          5.42873085e-01, 2.53038585e-01, 5.37689149e-01, 2.91389346e-01,
          5.37689149e-01, 5.37689149e-01, 2.05897868e-01, 5.08201897e-01,
          3.74808818e-01, 2.82197446e-01, 5.08201897e-01, 5.08201897e-01,
          4.84851897e-01, 2.34161973e-01, 4.84851897e-01, 4.84851897e-01,
          4.84851897e-01, 4.46215838e-01, 4.46215838e-01, 4.46215838e-01,
          4.46215838e-01, 4.46215838e-01, 4.77866173e-01, 4.77866173e-01,
          2.86011904e-01, 4.77866173e-01, 4.77866173e-01, 4.84851897e-01,
          2.34161973e-01, 4.84851897e-01, 4.84851897e-01, 4.84851897e-01,
          4.46215838e-01, 4.46215838e-01, 4.46215838e-01, 4.46215838e-01,
          4.46215838e-01, 4.77866173e-01, 4.77866173e-01, 2.86011904e-01,
          4.77866173e-01, 4.77866173e-01, 4.46215838e-01, 4.46215838e-01,
          4.46215838e-01, 4.46215838e-01, 4.46215838e-01, 4.76025432e-01,
          4.76025432e-01, 4.76025432e-01, 2.98067808e-01, 4.76025432e-01,
          4.41529244e-01, 4.74494457e-01, 3.53380412e-01, 4.74494457e-01,
          4.74494457e-01, 4.96272802e-01, 4.96272802e-01, 4.96272802e-01,
          9.94823277e-02, 4.96272802e-01, 2.35535219e-01, 5.50311685e-01,
          5.50311685e-01, 1.74639165e-01, 5.50311685e-01, 1.31034926e-01,
          4.94442046e-01, 4.94442046e-01, 4.94442046e-01, 4.94442046e-01 ]
      - [ 4.13892359e-01, 2.37055346e-01, 5.60653806e-01, 5.60653806e-01,
          3.71798187e-01, 5.09620368e-01, 8.13606381e-02, 6.10082209e-01,
          5.27413189e-01, 2.77868986e-01, 5.37620723e-01, 4.92237918e-02,
          5.37620723e-01, 5.37620723e-01, 3.53694469e-01, 2.27347478e-01,
          4.80724871e-01, 4.87288326e-01, 4.87288326e-01, 4.87288326e-01,
          4.88698810e-01, 4.88698810e-01, 4.88698810e-01, 1.99531659e-01,
          4.88698810e-01, 4.69859809e-01, 3.35013390e-01, 4.69859809e-01,
          4.69859809e-01, 4.69859809e-01, 1.93978325e-01, 5.45076430e-01,
          1.31234840e-01, 3.49548131e-01, 7.20186651e-01, 3.90821360e-02,
          5.44819117e-01, 5.44819117e-01, 3.20231527e-01, 5.44819117e-01,
          1.58321887e-01, 4.92446899e-01, 4.92446899e-01, 4.92446899e-01,
          4.92446899e-01, 1.93978325e-01, 5.45076430e-01, 1.31234840e-01,
          3.49548131e-01, 7.20186651e-01, 3.90821360e-02, 5.44819117e-01,
          5.44819117e-01, 3.20231527e-01, 5.44819117e-01, 1.58321887e-01,
          4.92446899e-01, 4.92446899e-01, 4.92446899e-01, 4.92446899e-01,
          4.48599160e-01, 5.11017144e-01, 5.11017144e-01, 4.12375748e-01,
          3.18315059e-01, 8.94232765e-02, 5.81202745e-01, 2.03243896e-01,
          2.96393275e-01, 7.19629467e-01, 8.04295093e-02, 5.79711139e-01,
          5.14637172e-01, 2.25302309e-01, 5.79711139e-01, 2.82322392e-02,
          7.03187764e-01, 7.03187764e-01, 5.68994246e-02, 3.57461759e-05,
          9.57221910e-02, 6.98840022e-01, 6.98840022e-01, 2.05043927e-02,
          8.17681625e-02, 2.78918054e-02, 4.03811872e-01, 6.30067110e-01,
          1.89468175e-01, 6.30067110e-01, 5.37620723e-01, 4.92237918e-02,
          5.37620723e-01, 5.37620723e-01, 3.53694469e-01, 4.97193545e-01,
          7.89220259e-02, 4.97193545e-01, 4.97193545e-01, 4.97193545e-01,
          4.46215838e-01, 4.46215838e-01, 4.46215838e-01, 4.46215838e-01,
          4.46215838e-01, 4.69859809e-01, 3.35013390e-01, 4.69859809e-01,
          4.69859809e-01, 4.69859809e-01, 4.46215838e-01, 4.46215838e-01,
          4.46215838e-01, 4.46215838e-01, 4.46215838e-01, 4.64992255e-01,
          4.64992255e-01, 3.61226171e-01, 4.64992255e-01, 4.64992255e-01,
          1.58321887e-01, 4.92446899e-01, 4.92446899e-01, 4.92446899e-01,
          4.92446899e-01, 4.63780612e-01, 4.63780612e-01, 4.63780612e-01,
          3.67420524e-01, 4.63780612e-01, 4.97938246e-01, 4.97938246e-01,
          5.70691153e-02, 4.97938246e-01, 4.97938246e-01, 1.58321887e-01,
          4.92446899e-01, 4.92446899e-01, 4.92446899e-01, 4.92446899e-01,
          4.63780612e-01, 4.63780612e-01, 4.63780612e-01, 3.67420524e-01,
          4.63780612e-01, 4.97938246e-01, 4.97938246e-01, 5.70691153e-02,
          4.97938246e-01, 4.97938246e-01, 8.04295093e-02, 5.79711139e-01,
          5.14637172e-01, 2.25302309e-01, 5.79711139e-01, 3.84845704e-01,
          4.93738383e-01, 4.93738383e-01, 3.40043843e-01, 4.93738383e-01,
          4.90552962e-01, 4.90552962e-01, 1.80365548e-01, 4.90552962e-01,
          4.90552962e-01, 2.78918054e-02, 4.03811872e-01, 6.30067110e-01,
          1.89468175e-01, 6.30067110e-01, 4.47983406e-02, 5.43154240e-01,
          5.02983570e-01, 2.11269170e-01, 6.31698072e-01, 4.60440695e-01,
          4.60440695e-01, 3.83898824e-01, 4.60440695e-01, 4.60440695e-01 ]
      - [ 4.58128899e-01, 3.94836515e-01, 4.58128899e-01, 4.58128899e-01,
          4.58128899e-01, 4.84469384e-01, 2.37316102e-01, 4.84469384e-01,
          4.84469384e-01, 4.84469384e-01, 5.13786912e-01, 2.84402907e-01,
          5.49449384e-01, 5.49449384e-01, 2.14153618e-01, 5.37846267e-01,
          1.15317285e-01, 5.37846267e-01, 5.37846267e-01, 3.36890101e-01,
          5.73452771e-01, 2.97141746e-02, 5.73452771e-01, 5.73452771e-01,
          8.27444419e-02, 5.56692839e-01, 1.62325189e-01, 5.56692839e-01,
          5.56692839e-01, 1.95884377e-01, 5.15049636e-01, 3.79126251e-01,
          5.15049636e-01, 5.15049636e-01, 2.35140905e-01, 5.02259970e-01,
          3.80309552e-01, 5.02259970e-01, 5.02259970e-01, 3.05864573e-01,
          4.95366633e-01, 1.16190314e-01, 4.95366633e-01, 4.95366633e-01,
          4.95366633e-01, 5.15049636e-01, 3.79126251e-01, 5.15049636e-01,
          5.15049636e-01, 2.35140905e-01, 5.02259970e-01, 3.80309552e-01,
          5.02259970e-01, 5.02259970e-01, 3.05864573e-01, 4.95366633e-01,
          1.16190314e-01, 4.95366633e-01, 4.95366633e-01, 4.95366633e-01,
          4.79368895e-01, 3.83957267e-01, 3.98001879e-01, 4.79368895e-01,
          4.79368895e-01, 3.84228915e-01, 4.90970999e-01, 4.90970999e-01,
          3.52571815e-01, 4.90970999e-01, 4.93241221e-01, 4.93241221e-01,
          4.93241221e-01, 1.48073912e-01, 4.93241221e-01, 2.54651636e-01,
          4.02758181e-01, 3.50694835e-01, 5.67575514e-01, 5.67575514e-01,
          4.62018937e-01, 4.62018937e-01, 4.39926058e-01, 4.01828259e-01,
          4.62018937e-01, 4.87178326e-01, 4.87178326e-01, 4.87178326e-01,
          2.13923320e-01, 4.87178326e-01, 5.13786912e-01, 2.84402907e-01,
          5.49449384e-01, 5.49449384e-01, 2.14153618e-01, 5.71055949e-01,
          6.93476349e-02, 5.71055949e-01, 5.71055949e-01, 1.05706871e-01,
          4.72209543e-01, 3.21490407e-01, 4.72209543e-01, 4.72209543e-01,
          4.72209543e-01, 5.56692839e-01, 1.62325189e-01, 5.56692839e-01,
          5.56692839e-01, 1.95884377e-01, 4.93247420e-01, 4.93247420e-01,
          4.93247420e-01, 4.93247420e-01, 1.47991553e-01, 4.79753226e-01,
          4.79753226e-01, 2.73049116e-01, 4.79753226e-01, 4.79753226e-01,
          4.95366633e-01, 1.16190314e-01, 4.95366633e-01, 4.95366633e-01,
          4.95366633e-01, 4.78851557e-01, 4.78851557e-01, 4.78851557e-01,
          2.79323786e-01, 4.78851557e-01, 4.70640093e-01, 4.70640093e-01,
          3.30591440e-01, 4.70640093e-01, 4.70640093e-01, 4.95366633e-01,
          1.16190314e-01, 4.95366633e-01, 4.95366633e-01, 4.95366633e-01,
          4.78851557e-01, 4.78851557e-01, 4.78851557e-01, 2.79323786e-01,
          4.78851557e-01, 4.70640093e-01, 4.70640093e-01, 3.30591440e-01,
          4.70640093e-01, 4.70640093e-01, 4.93241221e-01, 4.93241221e-01,
          4.93241221e-01, 1.48073912e-01, 4.93241221e-01, 4.89892483e-01,
          4.89892483e-01, 4.89892483e-01, 1.87426135e-01, 4.89892483e-01,
          4.09471631e-01, 3.99695039e-01, 2.56379068e-01, 5.48347831e-01,
          5.48347831e-01, 4.87178326e-01, 4.87178326e-01, 4.87178326e-01,
          2.13923320e-01, 4.87178326e-01, 1.78621501e-01, 5.33489466e-01,
          5.33489466e-01, 3.30050707e-01, 5.33489466e-01, 4.46215838e-01,
          4.46215838e-01, 4.46215838e-01, 4.46215838e-01, 4.46215838e-01 ]
      - [ 5.38843215e-01, 3.06660801e-01, 5.38843215e-01, 5.38843215e-01,
          1.71819702e-01, 5.53306818e-01, 2.69896507e-01, 5.53306818e-01,
          5.53306818e-01, 5.64369000e-02, 4.46215838e-01, 4.46215838e-01,
          4.46215838e-01, 4.46215838e-01, 4.46215838e-01, 4.72477853e-01,
          2.63878286e-01, 5.27674258e-01, 5.27674258e-01, 3.80766332e-01,
          4.76425409e-01, 4.76425409e-01, 4.76425409e-01, 4.76425409e-01,
          2.95494080e-01, 4.46215838e-01, 4.46215838e-01, 4.46215838e-01,
          4.46215838e-01, 4.46215838e-01, 1.81860879e-01, 3.94001007e-01,
          1.10985592e-01, 6.29716098e-01, 6.29716098e-01, 5.31354308e-01,
          5.31354308e-01, 5.31354308e-01, 3.08464974e-01, 2.29196042e-01,
          4.51626360e-01, 4.51626360e-01, 4.51626360e-01, 4.51626360e-01,
          4.23820019e-01, 1.81860879e-01, 3.94001007e-01, 1.10985592e-01,
          6.29716098e-01, 6.29716098e-01, 5.31354308e-01, 5.31354308e-01,
          5.31354308e-01, 3.08464974e-01, 2.29196042e-01, 4.51626360e-01,
          4.51626360e-01, 4.51626360e-01, 4.51626360e-01, 4.23820019e-01,
          6.15612678e-02, 5.44214129e-01, 3.19794446e-01, 5.44214129e-01,
          5.44214129e-01, 3.89249474e-01, 5.84149897e-01, 7.31829852e-02,
          3.93489540e-01, 5.84149897e-01, 4.64001030e-01, 4.64001030e-01,
          4.64001030e-01, 3.66302520e-01, 4.64001030e-01, 7.90241063e-02,
          5.42901218e-01, 5.42901218e-01, 3.22658062e-01, 5.42901218e-01,
          1.45484895e-01, 5.69380224e-01, 4.35722202e-01, 3.67297024e-01,
          5.69380224e-01, 4.71312344e-01, 4.71312344e-01, 4.71312344e-01,
          3.26728016e-01, 4.71312344e-01, 4.46215838e-01, 4.46215838e-01,
          4.46215838e-01, 4.46215838e-01, 4.46215838e-01, 4.06444550e-01,
          4.55590874e-01, 4.55590874e-01, 4.55590874e-01, 4.55590874e-01,
          2.57145077e-01, 4.81939524e-01, 4.81939524e-01, 4.81939524e-01,
          4.81939524e-01, 4.46215838e-01, 4.46215838e-01, 4.46215838e-01,
          4.46215838e-01, 4.46215838e-01, 4.46215838e-01, 4.46215838e-01,
          4.46215838e-01, 4.46215838e-01, 4.46215838e-01, 3.03415835e-01,
          4.75182265e-01, 4.75182265e-01, 4.75182265e-01, 4.75182265e-01,
          4.51626360e-01, 4.51626360e-01, 4.51626360e-01, 4.51626360e-01,
          4.23820019e-01, 4.46215838e-01, 4.46215838e-01, 4.46215838e-01,
          4.46215838e-01, 4.46215838e-01, 4.82046127e-01, 2.56342679e-01,
          4.82046127e-01, 4.82046127e-01, 4.82046127e-01, 4.51626360e-01,
          4.51626360e-01, 4.51626360e-01, 4.51626360e-01, 4.23820019e-01,
          4.46215838e-01, 4.46215838e-01, 4.46215838e-01, 4.46215838e-01,
          4.46215838e-01, 4.82046127e-01, 2.56342679e-01, 4.82046127e-01,
          4.82046127e-01, 4.82046127e-01, 4.64001030e-01, 4.64001030e-01,
          4.64001030e-01, 3.66302520e-01, 4.64001030e-01, 4.46215838e-01,
          4.46215838e-01, 4.46215838e-01, 4.46215838e-01, 4.46215838e-01,
          3.15533847e-01, 2.29884371e-01, 5.07689595e-01, 5.40575802e-01,
          5.40575802e-01, 4.71312344e-01, 4.71312344e-01, 4.71312344e-01,
          3.26728016e-01, 4.71312344e-01, 4.56693470e-01, 4.01450694e-01,
          4.56693470e-01, 4.56693470e-01, 4.56693470e-01, 4.96311396e-01,
          9.87075493e-02, 4.96311396e-01, 4.96311396e-01, 4.96311396e-01 ]
      - [ 4.67841446e-01, 4.67841446e-01, 4.67841446e-01, 4.67841446e-01,
          3.46157044e-01, 5.19701183e-01, 5.19701183e-01, 5.19701183e-01,
          4.23138022e-01, 7.41349086e-02, 4.09358948e-01, 2.01204848e-02,
          5.71089625e-01, 5.71089625e-01, 4.17170227e-01, 4.86780971e-01,
          4.86780971e-01, 4.86780971e-01, 4.86780971e-01, 2.17520609e-01,
          5.20666242e-01, 3.35365504e-01, 5.20666242e-01, 5.20666242e-01,
          2.62774110e-01, 5.04569113e-01, 2.65156955e-01, 5.04569113e-01,
          5.04569113e-01, 4.01101708e-01, 4.56219435e-01, 5.99599898e-01,
          5.99599898e-01, 2.52660990e-01, 5.47641590e-02, 4.46215838e-01,
          4.46215838e-01, 4.46215838e-01, 4.46215838e-01, 4.46215838e-01,
          4.72597986e-01, 3.19192767e-01, 4.72597986e-01, 4.72597986e-01,
          4.72597986e-01, 4.56219435e-01, 5.99599898e-01, 5.99599898e-01,
          2.52660990e-01, 5.47641590e-02, 4.46215838e-01, 4.46215838e-01,
          4.46215838e-01, 4.46215838e-01, 4.46215838e-01, 4.72597986e-01,
          3.19192767e-01, 4.72597986e-01, 4.72597986e-01, 4.72597986e-01,
          4.46215838e-01, 4.46215838e-01, 4.46215838e-01, 4.46215838e-01,
          4.46215838e-01, 1.37462690e-01, 5.99763215e-01, 5.99763215e-01,
          1.86999589e-01, 4.69802946e-01, 4.55646276e-01, 4.55646276e-01,
          4.55646276e-01, 4.06195194e-01, 4.55646276e-01, 4.46215838e-01,
          4.46215838e-01, 4.46215838e-01, 4.46215838e-01, 4.46215838e-01,
          4.46215838e-01, 4.46215838e-01, 4.46215838e-01, 4.46215838e-01,
          4.46215838e-01, 2.86165088e-01, 5.67618549e-01, 5.67618549e-01,
          2.31544808e-01, 4.63084012e-01, 4.09358948e-01, 2.01204848e-02,
          5.71089625e-01, 5.71089625e-01, 4.17170227e-01, 4.95601147e-01,
          1.12108029e-01, 4.95601147e-01, 4.95601147e-01, 4.95601147e-01,
          4.94048178e-01, 1.36861846e-01, 4.94048178e-01, 4.94048178e-01,
          4.94048178e-01, 5.04569113e-01, 2.65156955e-01, 5.04569113e-01,
          5.04569113e-01, 4.01101708e-01, 4.75935906e-01, 4.75935906e-01,
          4.75935906e-01, 4.75935906e-01, 2.98640966e-01, 3.49971741e-01,
          9.75625888e-02, 2.76798129e-01, 6.81217849e-01, 5.66150129e-01,
          4.72597986e-01, 3.19192767e-01, 4.72597986e-01, 4.72597986e-01,
          4.72597986e-01, 4.46215838e-01, 4.46215838e-01, 4.46215838e-01,
          4.46215838e-01, 4.46215838e-01, 3.44662607e-01, 4.79034334e-01,
          4.26230788e-01, 5.94428658e-01, 3.32836717e-01, 4.72597986e-01,
          3.19192767e-01, 4.72597986e-01, 4.72597986e-01, 4.72597986e-01,
          4.46215838e-01, 4.46215838e-01, 4.46215838e-01, 4.46215838e-01,
          4.46215838e-01, 3.44662607e-01, 4.79034334e-01, 4.26230788e-01,
          5.94428658e-01, 3.32836717e-01, 4.55646276e-01, 4.55646276e-01,
          4.55646276e-01, 4.06195194e-01, 4.55646276e-01, 4.74492937e-01,
          4.74492937e-01, 3.07711780e-01, 4.74492937e-01, 4.74492937e-01,
          4.13039446e-01, 2.76315629e-01, 2.03921348e-01, 5.93941748e-01,
          5.93941748e-01, 2.86165088e-01, 5.67618549e-01, 5.67618549e-01,
          2.31544808e-01, 4.63084012e-01, 4.06435281e-02, 5.66577375e-01,
          5.66577375e-01, 5.66577375e-01, 1.72222406e-01, 4.10919398e-01,
          4.05686975e-01, 4.69706267e-01, 4.69706267e-01, 4.69706267e-01 ]
      - [ 4.98667210e-01, 4.98667210e-01, 4.98667210e-01, 4.98667210e-01,
          1.85377542e-02, 4.97516304e-01, 4.97516304e-01, 4.97516304e-01,
          4.97516304e-01, 7.02933222e-02, 4.18662786e-01, 4.52823967e-01,
          4.52823967e-01, 4.52823967e-01, 4.52823967e-01, 4.36499149e-01,
          5.17566919e-01, 5.17566919e-01, 5.17566919e-01, 2.59418692e-02,
          4.65569794e-01, 4.65569794e-01, 4.65569794e-01, 4.65569794e-01,
          3.58230352e-01, 2.74142444e-01, 4.79597658e-01, 4.79597658e-01,
          4.79597658e-01, 4.79597658e-01, 6.98382854e-01, 6.98382854e-01,
          1.43320914e-02, 4.37026192e-03, 1.31630838e-01, 4.54419911e-01,
          4.54419911e-01, 4.11668867e-01, 4.54419911e-01, 4.54419911e-01,
          4.76423025e-01, 4.76423025e-01, 4.76423025e-01, 2.95509368e-01,
          4.76423025e-01, 6.98382854e-01, 6.98382854e-01, 1.43320914e-02,
          4.37026192e-03, 1.31630838e-01, 4.54419911e-01, 4.54419911e-01,
          4.11668867e-01, 4.54419911e-01, 4.54419911e-01, 4.76423025e-01,
          4.76423025e-01, 4.76423025e-01, 2.95509368e-01, 4.76423025e-01,
          5.75136960e-01, 5.75136960e-01, 3.56571260e-03, 4.35512029e-02,
          5.75136960e-01, 4.46215838e-01, 4.46215838e-01, 4.46215838e-01,
          4.46215838e-01, 4.46215838e-01, 3.41346711e-01, 4.68721837e-01,
          4.68721837e-01, 4.68721837e-01, 4.68721837e-01, 4.78032798e-01,
          4.78032798e-01, 4.78032798e-01, 2.84892976e-01, 4.78032798e-01,
          4.46215838e-01, 4.46215838e-01, 4.46215838e-01, 4.46215838e-01,
          4.46215838e-01, 3.92888427e-01, 4.58546221e-01, 4.58546221e-01,
          4.58546221e-01, 4.58546221e-01, 4.18662786e-01, 4.52823967e-01,
          4.52823967e-01, 4.52823967e-01, 4.52823967e-01, 2.17477918e-01,
          4.86785740e-01, 4.86785740e-01, 4.86785740e-01, 4.86785740e-01,
          3.43521655e-01, 4.68325466e-01, 4.68325466e-01, 4.68325466e-01,
          4.68325466e-01, 2.74142444e-01, 4.79597658e-01, 4.79597658e-01,
          4.79597658e-01, 4.79597658e-01, 4.46215838e-01, 4.46215838e-01,
          4.46215838e-01, 4.46215838e-01, 4.46215838e-01, 1.22674942e-01,
          4.94976580e-01, 4.94976580e-01, 4.94976580e-01, 4.94976580e-01,
          4.76423025e-01, 4.76423025e-01, 4.76423025e-01, 2.95509368e-01,
          4.76423025e-01, 3.23888719e-01, 4.26301450e-01, 4.85973090e-01,
          4.85973090e-01, 4.85973090e-01, 3.16231996e-01, 4.73094076e-01,
          4.73094076e-01, 4.73094076e-01, 4.73094076e-01, 4.76423025e-01,
          4.76423025e-01, 4.76423025e-01, 2.95509368e-01, 4.76423025e-01,
          3.23888719e-01, 4.26301450e-01, 4.85973090e-01, 4.85973090e-01,
          4.85973090e-01, 3.16231996e-01, 4.73094076e-01, 4.73094076e-01,
          4.73094076e-01, 4.73094076e-01, 3.41346711e-01, 4.68721837e-01,
          4.68721837e-01, 4.68721837e-01, 4.68721837e-01, 2.11478800e-01,
          3.69673073e-01, 5.20710468e-01, 5.20710468e-01, 5.20710468e-01,
          4.78695154e-01, 4.78695154e-01, 3.58424008e-01, 4.78695154e-01,
          4.23442930e-01, 3.92888427e-01, 4.58546221e-01, 4.58546221e-01,
          4.58546221e-01, 4.58546221e-01, 4.54804093e-01, 4.09963429e-01,
          4.54804093e-01, 4.54804093e-01, 4.54804093e-01, 4.46215838e-01,
          4.46215838e-01, 4.46215838e-01, 4.46215838e-01, 4.46215838e-01 ]
      - [ 4.46215838e-01, 4.46215838e-01, 4.46215838e-01, 4.46215838e-01,
          4.46215838e-01, 4.46215838e-01, 4.46215838e-01, 4.46215838e-01,
          4.46215838e-01, 4.46215838e-01, 4.60881054e-01, 3.81773531e-01,
          4.60881054e-01, 4.60881054e-01, 4.60881054e-01, 4.46215838e-01,
          4.46215838e-01, 4.46215838e-01, 4.46215838e-01, 4.46215838e-01,
          4.46215838e-01, 4.46215838e-01, 4.46215838e-01, 4.46215838e-01,
          4.46215838e-01, 4.49466944e-01, 4.32929695e-01, 4.49466944e-01,
          4.49466944e-01, 4.49466944e-01, 4.46215838e-01, 4.46215838e-01,
          4.46215838e-01, 4.46215838e-01, 4.46215838e-01, 4.46215838e-01,
          4.46215838e-01, 4.46215838e-01, 4.46215838e-01, 4.46215838e-01,
          4.93597329e-01, 1.43237337e-01, 4.93597329e-01, 4.93597329e-01,
          4.93597329e-01, 4.46215838e-01, 4.46215838e-01, 4.46215838e-01,
          4.46215838e-01, 4.46215838e-01, 4.46215838e-01, 4.46215838e-01,
          4.46215838e-01, 4.46215838e-01, 4.46215838e-01, 4.93597329e-01,
          1.43237337e-01, 4.93597329e-01, 4.93597329e-01, 4.93597329e-01,
          4.46215838e-01, 4.46215838e-01, 4.46215838e-01, 4.46215838e-01,
          4.46215838e-01, 4.82684523e-01, 4.82684523e-01, 4.82684523e-01,
          4.82684523e-01, 2.51478761e-01, 4.65695530e-01, 3.57573986e-01,
          4.65695530e-01, 4.65695530e-01, 4.65695530e-01, 4.61906254e-01,
          3.88104856e-01, 4.52425390e-01, 4.61906254e-01, 4.61906254e-01,
          4.46215838e-01, 4.46215838e-01, 4.46215838e-01, 4.46215838e-01,
          4.46215838e-01, 3.16338181e-01, 3.59993279e-01, 5.05071163e-01,
          5.05071163e-01, 5.05071163e-01, 4.60881054e-01, 3.81773531e-01,
          4.60881054e-01, 4.60881054e-01, 4.60881054e-01, 4.46215838e-01,
          4.46215838e-01, 4.46215838e-01, 4.46215838e-01, 4.46215838e-01,
          4.46215838e-01, 4.46215838e-01, 4.46215838e-01, 4.46215838e-01,
          4.46215838e-01, 4.49466944e-01, 4.32929695e-01, 4.49466944e-01,
          4.49466944e-01, 4.49466944e-01, 4.46215838e-01, 4.46215838e-01,
          4.46215838e-01, 4.46215838e-01, 4.46215838e-01, 4.67631787e-01,
          3.47291410e-01, 4.67631787e-01, 4.67631787e-01, 4.67631787e-01,
          4.93597329e-01, 1.43237337e-01, 4.93597329e-01, 4.93597329e-01,
          4.93597329e-01, 3.19732606e-01, 4.72507060e-01, 4.72507060e-01,
          4.72507060e-01, 4.72507060e-01, 4.46215838e-01, 4.46215838e-01,
          4.46215838e-01, 4.46215838e-01, 4.46215838e-01, 4.93597329e-01,
          1.43237337e-01, 4.93597329e-01, 4.93597329e-01, 4.93597329e-01,
          3.19732606e-01, 4.72507060e-01, 4.72507060e-01, 4.72507060e-01,
          4.72507060e-01, 4.46215838e-01, 4.46215838e-01, 4.46215838e-01,
          4.46215838e-01, 4.46215838e-01, 4.65695530e-01, 3.57573986e-01,
          4.65695530e-01, 4.65695530e-01, 4.65695530e-01, 4.79479849e-01,
          2.74967760e-01, 4.79479849e-01, 4.79479849e-01, 4.79479849e-01,
          4.46215838e-01, 4.46215838e-01, 4.46215838e-01, 4.46215838e-01,
          4.46215838e-01, 3.16338181e-01, 3.59993279e-01, 5.05071163e-01,
          5.05071163e-01, 5.05071163e-01, 4.46215838e-01, 4.46215838e-01,
          4.46215838e-01, 4.46215838e-01, 4.46215838e-01, 4.04248565e-01,
          4.95967299e-01, 4.95967299e-01, 4.95967299e-01, 3.06070149e-01 ]
      - [ 4.46215838e-01, 4.46215838e-01, 4.46215838e-01, 4.46215838e-01,
          4.46215838e-01, 4.46215838e-01, 4.46215838e-01, 4.46215838e-01,
          4.46215838e-01, 4.46215838e-01, 4.46215838e-01, 4.46215838e-01,
          4.46215838e-01, 4.46215838e-01, 4.46215838e-01, 4.47925240e-01,
          4.47925240e-01, 4.39292163e-01, 4.47925240e-01, 4.47925240e-01,
          4.46215838e-01, 4.46215838e-01, 4.46215838e-01, 4.46215838e-01,
          4.46215838e-01, 5.13538420e-01, 2.95810372e-01, 5.13538420e-01,
          5.13538420e-01, 3.40884656e-01, 4.46215838e-01, 4.46215838e-01,
          4.46215838e-01, 4.46215838e-01, 4.46215838e-01, 4.77675289e-01,
          4.77675289e-01, 4.77675289e-01, 4.77675289e-01, 2.87287533e-01,
          4.95758921e-01, 1.09274872e-01, 4.95758921e-01, 4.95758921e-01,
          4.95758921e-01, 4.46215838e-01, 4.46215838e-01, 4.46215838e-01,
          4.46215838e-01, 4.46215838e-01, 4.77675289e-01, 4.77675289e-01,
          4.77675289e-01, 4.77675289e-01, 2.87287533e-01, 4.95758921e-01,
          1.09274872e-01, 4.95758921e-01, 4.95758921e-01, 4.95758921e-01,
          4.46215838e-01, 4.46215838e-01, 4.46215838e-01, 4.46215838e-01,
          4.46215838e-01, 4.52944040e-01, 4.52944040e-01, 4.52944040e-01,
          4.18141663e-01, 4.52944040e-01, 4.65586275e-01, 4.65586275e-01,
          4.65586275e-01, 3.58144164e-01, 4.65586275e-01, 4.46215838e-01,
          4.46215838e-01, 4.46215838e-01, 4.46215838e-01, 4.46215838e-01,
          4.46215838e-01, 4.46215838e-01, 4.46215838e-01, 4.46215838e-01,
          4.46215838e-01, 4.46215838e-01, 4.46215838e-01, 4.46215838e-01,
          4.46215838e-01, 4.46215838e-01, 4.46215838e-01, 4.46215838e-01,
          4.46215838e-01, 4.46215838e-01, 4.46215838e-01, 4.65470523e-01,
          3.58747184e-01, 4.65470523e-01, 4.65470523e-01, 4.65470523e-01,
          4.46215838e-01, 4.46215838e-01, 4.46215838e-01, 4.46215838e-01,
          4.46215838e-01, 5.13538420e-01, 2.95810372e-01, 5.13538420e-01,
          5.13538420e-01, 3.40884656e-01, 5.58952272e-01, 1.90969646e-01,
          5.58952272e-01, 5.01450896e-01, 2.85727948e-01, 5.13817787e-01,
          3.29245329e-01, 3.07310551e-01, 5.13817787e-01, 5.13817787e-01,
          4.95758921e-01, 1.09274872e-01, 4.95758921e-01, 4.95758921e-01,
          4.95758921e-01, 4.96833861e-01, 4.96833861e-01, 4.96833861e-01,
          3.77575994e-01, 3.34578216e-01, 4.55205649e-01, 4.55205649e-01,
          4.08171982e-01, 4.55205649e-01, 4.55205649e-01, 4.95758921e-01,
          1.09274872e-01, 4.95758921e-01, 4.95758921e-01, 4.95758921e-01,
          4.96833861e-01, 4.96833861e-01, 4.96833861e-01, 3.77575994e-01,
          3.34578216e-01, 4.55205649e-01, 4.55205649e-01, 4.08171982e-01,
          4.55205649e-01, 4.55205649e-01, 4.65586275e-01, 4.65586275e-01,
          4.65586275e-01, 3.58144164e-01, 4.65586275e-01, 4.82599467e-01,
          4.82599467e-01, 4.82599467e-01, 2.52132714e-01, 4.82599467e-01,
          4.46215838e-01, 4.46215838e-01, 4.46215838e-01, 4.46215838e-01,
          4.46215838e-01, 4.46215838e-01, 4.46215838e-01, 4.46215838e-01,
          4.46215838e-01, 4.46215838e-01, 4.76668090e-01, 4.76668090e-01,
          4.76668090e-01, 2.93920308e-01, 4.76668090e-01, 4.46215838e-01,
          4.46215838e-01, 4.46215838e-01, 4.46215838e-01, 4.46215838e-01 ]
      - [ 4.69971567e-01, 3.34383935e-01, 4.69971567e-01, 4.69971567e-01,
          4.69971567e-01, 5.23189664e-01, 3.76526594e-01, 5.23189664e-01,
          1.78382829e-01, 5.23189664e-01, 5.52369893e-01, 1.67224854e-01,
          5.52369893e-01, 2.26235181e-01, 5.52369893e-01, 4.80276018e-01,
          2.69337684e-01, 4.80276018e-01, 4.80276018e-01, 4.80276018e-01,
          4.65513796e-01, 4.43500906e-01, 4.65513796e-01, 3.85419190e-01,
          4.65513796e-01, 5.29285371e-01, 2.58897543e-01, 5.29285371e-01,
          2.95393348e-01, 5.29285371e-01, 4.53675598e-01, 4.14948523e-01,
          4.53675598e-01, 4.53675598e-01, 4.53675598e-01, 4.95005190e-01,
          1.22210987e-01, 4.95005190e-01, 4.95005190e-01, 4.95005190e-01,
          4.40358043e-01, 4.17561650e-01, 5.03055274e-01, 3.47237438e-01,
          5.03055274e-01, 4.53675598e-01, 4.14948523e-01, 4.53675598e-01,
          4.53675598e-01, 4.53675598e-01, 4.95005190e-01, 1.22210987e-01,
          4.95005190e-01, 4.95005190e-01, 4.95005190e-01, 4.40358043e-01,
          4.17561650e-01, 5.03055274e-01, 3.47237438e-01, 5.03055274e-01,
          4.46215838e-01, 4.46215838e-01, 4.46215838e-01, 4.46215838e-01,
          4.46215838e-01, 5.09239078e-01, 2.10536867e-01, 5.09239078e-01,
          4.15469825e-01, 5.09239078e-01, 6.40714347e-01, 1.60641640e-01,
          3.37896436e-01, 1.80537030e-01, 6.40714347e-01, 4.97365713e-01,
          4.97365713e-01, 4.97365713e-01, 7.44442642e-02, 4.97365713e-01,
          4.59186852e-01, 4.37560529e-01, 4.59186852e-01, 4.59186852e-01,
          4.14000690e-01, 6.41748905e-01, 2.55120724e-01, 6.41748905e-01,
          2.09554955e-01, 2.46798947e-01, 5.52369893e-01, 1.67224854e-01,
          5.52369893e-01, 2.26235181e-01, 5.52369893e-01, 5.42195499e-01,
          3.27676356e-01, 5.42195499e-01, 7.27037713e-02, 5.42195499e-01,
          5.37946880e-01, 1.92131400e-01, 5.37946880e-01, 2.99253732e-01,
          5.37946880e-01, 5.29285371e-01, 2.58897543e-01, 5.29285371e-01,
          2.95393348e-01, 5.29285371e-01, 5.19951105e-01, 4.28177387e-01,
          5.19951105e-01, 2.05879584e-02, 5.19951105e-01, 4.81664896e-01,
          2.59200215e-01, 4.81664896e-01, 4.81664896e-01, 4.81664896e-01,
          4.40358043e-01, 4.17561650e-01, 5.03055274e-01, 3.47237438e-01,
          5.03055274e-01, 4.95972216e-01, 4.95972216e-01, 4.95972216e-01,
          1.05321489e-01, 4.95972216e-01, 4.73125070e-01, 3.16045851e-01,
          4.73125070e-01, 4.73125070e-01, 4.73125070e-01, 4.40358043e-01,
          4.17561650e-01, 5.03055274e-01, 3.47237438e-01, 5.03055274e-01,
          4.95972216e-01, 4.95972216e-01, 4.95972216e-01, 1.05321489e-01,
          4.95972216e-01, 4.73125070e-01, 3.16045851e-01, 4.73125070e-01,
          4.73125070e-01, 4.73125070e-01, 6.40714347e-01, 1.60641640e-01,
          3.37896436e-01, 1.80537030e-01, 6.40714347e-01, 6.28494442e-01,
          1.52327523e-01, 5.23912072e-01, 2.30832919e-01, 4.97743338e-01,
          4.95619595e-01, 1.11780681e-01, 4.95619595e-01, 4.95619595e-01,
          4.95619595e-01, 6.41748905e-01, 2.55120724e-01, 6.41748905e-01,
          2.09554955e-01, 2.46798947e-01, 2.47480974e-01, 6.51615709e-02,
          6.78623557e-01, 6.78623557e-01, 8.16854462e-02, 1.36594817e-01,
          4.00341779e-01, 6.18024349e-01, 6.18024349e-01, 2.25808561e-01 ]
      - [ 4.20967937e-01, 4.52290863e-01, 4.52290863e-01, 4.52290863e-01,
          4.52290863e-01, 4.46215838e-01, 4.46215838e-01, 4.46215838e-01,
          4.46215838e-01, 4.46215838e-01, 5.71218371e-01, 4.07061845e-01,
          3.26134086e-01, 5.71218371e-01, 2.63917297e-01, 4.46215838e-01,
          4.46215838e-01, 4.46215838e-01, 4.46215838e-01, 4.46215838e-01,
          5.09849012e-01, 5.09849012e-01, 4.76564407e-01, 4.50813800e-01,
          2.11351588e-01, 5.55932283e-01, 2.47986823e-01, 5.55932283e-01,
          5.55932283e-01, 7.59531707e-02, 5.50804675e-01, 2.07625657e-01,
          3.09659034e-01, 4.98729229e-01, 5.50804675e-01, 5.63620746e-01,
          1.76013559e-01, 5.63620746e-01, 5.63620746e-01, 1.01911619e-01,
          5.29289663e-01, 2.31638074e-01, 5.29289663e-01, 5.29289663e-01,
          3.17199498e-01, 5.50804675e-01, 2.07625657e-01, 3.09659034e-01,
          4.98729229e-01, 5.50804675e-01, 5.63620746e-01, 1.76013559e-01,
          5.63620746e-01, 5.63620746e-01, 1.01911619e-01, 5.29289663e-01,
          2.31638074e-01, 5.29289663e-01, 5.29289663e-01, 3.17199498e-01,
          4.82117176e-01, 4.82117176e-01, 4.82117176e-01, 4.82117176e-01,
          2.55806059e-01, 4.95373070e-01, 4.95373070e-01, 4.95373070e-01,
          4.95373070e-01, 1.16080083e-01, 4.59871501e-01, 3.86625767e-01,
          4.59871501e-01, 4.59871501e-01, 4.59871501e-01, 4.46215838e-01,
          4.46215838e-01, 4.46215838e-01, 4.46215838e-01, 4.46215838e-01,
          2.74655491e-01, 4.91552204e-01, 4.91552204e-01, 4.41343546e-01,
          4.91552204e-01, 3.02518755e-01, 5.04781902e-01, 5.04781902e-01,
          3.72862786e-01, 5.04781902e-01, 5.71218371e-01, 4.07061845e-01,
          3.26134086e-01, 5.71218371e-01, 2.63917297e-01, 4.94217396e-01,
          2.81710088e-01, 4.94217396e-01, 4.94217396e-01, 4.27727431e-01,
          4.46215838e-01, 4.46215838e-01, 4.46215838e-01, 4.46215838e-01,
          4.46215838e-01, 5.55932283e-01, 2.47986823e-01, 5.55932283e-01,
          5.55932283e-01, 7.59531707e-02, 4.90522355e-01, 1.80699050e-01,
          4.90522355e-01, 4.90522355e-01, 4.90522355e-01, 4.46215838e-01,
          4.46215838e-01, 4.46215838e-01, 4.46215838e-01, 4.46215838e-01,
          5.29289663e-01, 2.31638074e-01, 5.29289663e-01, 5.29289663e-01,
          3.17199498e-01, 4.46215838e-01, 4.46215838e-01, 4.46215838e-01,
          4.46215838e-01, 4.46215838e-01, 4.46215838e-01, 4.46215838e-01,
          4.46215838e-01, 4.46215838e-01, 4.46215838e-01, 5.29289663e-01,
          2.31638074e-01, 5.29289663e-01, 5.29289663e-01, 3.17199498e-01,
          4.46215838e-01, 4.46215838e-01, 4.46215838e-01, 4.46215838e-01,
          4.46215838e-01, 4.46215838e-01, 4.46215838e-01, 4.46215838e-01,
          4.46215838e-01, 4.46215838e-01, 4.59871501e-01, 3.86625767e-01,
          4.59871501e-01, 4.59871501e-01, 4.59871501e-01, 4.46215838e-01,
          4.46215838e-01, 4.46215838e-01, 4.46215838e-01, 4.46215838e-01,
          4.70644563e-01, 4.70644563e-01, 3.30565751e-01, 4.70644563e-01,
          4.70644563e-01, 3.02518755e-01, 5.04781902e-01, 5.04781902e-01,
          3.72862786e-01, 5.04781902e-01, 2.86963552e-01, 5.51103294e-01,
          5.51103294e-01, 2.80621141e-01, 4.75363761e-01, 3.98306221e-01,
          4.57379401e-01, 4.57379401e-01, 4.57379401e-01, 4.57379401e-01 ]
      - [ 4.46215838e-01, 4.46215838e-01, 4.46215838e-01, 4.46215838e-01,
          4.46215838e-01, 5.28852522e-01, 5.28852522e-01, 5.28852522e-01,
          1.26001239e-01, 3.73881400e-01, 4.46215838e-01, 4.46215838e-01,
          4.46215838e-01, 4.46215838e-01, 4.46215838e-01, 4.52856928e-01,
          4.52856928e-01, 4.18520033e-01, 4.52856928e-01, 4.52856928e-01,
          4.67756271e-01, 4.67756271e-01, 4.67756271e-01, 4.67756271e-01,
          3.46618295e-01, 5.23540437e-01, 2.53983438e-01, 5.23540437e-01,
          5.23540437e-01, 3.28603357e-01, 4.46215838e-01, 4.46215838e-01,
          4.46215838e-01, 4.46215838e-01, 4.46215838e-01, 4.59611386e-01,
          4.59611386e-01, 4.59611386e-01, 4.59611386e-01, 3.87864262e-01,
          4.95411158e-01, 1.15425512e-01, 4.95411158e-01, 4.95411158e-01,
          4.95411158e-01, 4.46215838e-01, 4.46215838e-01, 4.46215838e-01,
          4.46215838e-01, 4.46215838e-01, 4.59611386e-01, 4.59611386e-01,
          4.59611386e-01, 4.59611386e-01, 3.87864262e-01, 4.95411158e-01,
          1.15425512e-01, 4.95411158e-01, 4.95411158e-01, 4.95411158e-01,
          2.13391185e-01, 5.36874115e-01, 5.36874115e-01, 3.58108401e-01,
          4.94361609e-01, 2.82652825e-01, 5.02504051e-01, 5.02504051e-01,
          3.96935314e-01, 5.02504051e-01, 4.67283338e-01, 4.67283338e-01,
          4.67283338e-01, 3.49167198e-01, 4.67283338e-01, 4.94015932e-01,
          3.77769917e-01, 4.94015932e-01, 3.46699566e-01, 4.94015932e-01,
          4.70394224e-01, 4.70394224e-01, 4.70394224e-01, 3.31991911e-01,
          4.70394224e-01, 4.64292586e-01, 4.83035326e-01, 4.83035326e-01,
          2.82202750e-01, 4.83035326e-01, 4.46215838e-01, 4.46215838e-01,
          4.46215838e-01, 4.46215838e-01, 4.46215838e-01, 5.36951244e-01,
          1.16419069e-01, 5.36951244e-01, 5.36951244e-01, 3.40784997e-01,
          4.77727383e-01, 2.86939979e-01, 4.77727383e-01, 4.77727383e-01,
          4.77727383e-01, 5.23540437e-01, 2.53983438e-01, 5.23540437e-01,
          5.23540437e-01, 3.28603357e-01, 5.27305245e-01, 2.50421494e-01,
          5.27305245e-01, 5.27305245e-01, 3.12842697e-01, 4.46215838e-01,
          4.46215838e-01, 4.46215838e-01, 4.46215838e-01, 4.46215838e-01,
          4.95411158e-01, 1.15425512e-01, 4.95411158e-01, 4.95411158e-01,
          4.95411158e-01, 4.46215838e-01, 4.46215838e-01, 4.46215838e-01,
          4.46215838e-01, 4.46215838e-01, 4.46215838e-01, 4.46215838e-01,
          4.46215838e-01, 4.46215838e-01, 4.46215838e-01, 4.95411158e-01,
          1.15425512e-01, 4.95411158e-01, 4.95411158e-01, 4.95411158e-01,
          4.46215838e-01, 4.46215838e-01, 4.46215838e-01, 4.46215838e-01,
          4.46215838e-01, 4.46215838e-01, 4.46215838e-01, 4.46215838e-01,
          4.46215838e-01, 4.46215838e-01, 4.67283338e-01, 4.67283338e-01,
          4.67283338e-01, 3.49167198e-01, 4.67283338e-01, 4.95919079e-01,
          4.95919079e-01, 4.95919079e-01, 1.06320530e-01, 4.95919079e-01,
          5.25812924e-01, 2.58169532e-01, 3.14101279e-01, 5.25812924e-01,
          5.25812924e-01, 4.64292586e-01, 4.83035326e-01, 4.83035326e-01,
          2.82202750e-01, 4.83035326e-01, 2.89828956e-01, 5.35208642e-01,
          5.35208642e-01, 2.26515844e-01, 5.35208642e-01, 1.24560818e-01,
          4.94859070e-01, 4.94859070e-01, 4.94859070e-01, 4.94859070e-01 ]
      - [ 4.95829880e-01, 4.95829880e-01, 4.95829880e-01, 4.95829880e-01,
          1.07976198e-01, 4.98331130e-01, 4.98331130e-01, 4.98331130e-01,
          4.98331130e-01, 4.10746187e-02, 4.46215838e-01, 4.46215838e-01,
          4.46215838e-01, 4.46215838e-01, 4.46215838e-01, 4.33606476e-01,
          3.06582958e-01, 5.56615174e-01, 5.56615174e-01, 3.04619551e-01,
          4.84153897e-01, 4.84153897e-01, 4.84153897e-01, 4.84153897e-01,
          2.39884153e-01, 4.46215838e-01, 4.46215838e-01, 4.46215838e-01,
          4.46215838e-01, 4.46215838e-01, 3.33314002e-01, 2.77852297e-01,
          2.94700004e-02, 6.34231508e-01, 6.34231508e-01, 5.08636117e-01,
          5.08636117e-01, 3.44011813e-01, 5.08636117e-01, 3.16928864e-01,
          4.46215838e-01, 4.46215838e-01, 4.46215838e-01, 4.46215838e-01,
          4.46215838e-01, 3.33314002e-01, 2.77852297e-01, 2.94700004e-02,
          6.34231508e-01, 6.34231508e-01, 5.08636117e-01, 5.08636117e-01,
          3.44011813e-01, 5.08636117e-01, 3.16928864e-01, 4.46215838e-01,
          4.46215838e-01, 4.46215838e-01, 4.46215838e-01, 4.46215838e-01,
          1.70636877e-01, 5.20268083e-01, 2.50091255e-01, 5.62158704e-01,
          5.62158704e-01, 5.12393892e-01, 5.12393892e-01, 2.74695545e-01,
          4.66479212e-01, 4.20389235e-01, 4.46215838e-01, 4.46215838e-01,
          4.46215838e-01, 4.46215838e-01, 4.46215838e-01, 7.96019062e-02,
          5.19454181e-01, 5.09428322e-01, 4.35078412e-01, 5.19454181e-01,
          5.00313282e-01, 5.00313282e-01, 2.83099800e-01, 4.04867232e-01,
          5.00313282e-01, 4.46215838e-01, 4.46215838e-01, 4.46215838e-01,
          4.46215838e-01, 4.46215838e-01, 4.46215838e-01, 4.46215838e-01,
          4.46215838e-01, 4.46215838e-01, 4.46215838e-01, 4.43018675e-01,
          4.47009325e-01, 4.47009325e-01, 4.47009325e-01, 4.47009325e-01,
          6.75835162e-02, 4.97609943e-01, 4.97609943e-01, 4.97609943e-01,
          4.97609943e-01, 4.46215838e-01, 4.46215838e-01, 4.46215838e-01,
          4.46215838e-01, 4.46215838e-01, 4.51818198e-01, 4.22999173e-01,
          4.51818198e-01, 4.51818198e-01, 4.51818198e-01, 2.15914622e-01,
          4.86959279e-01, 4.86959279e-01, 4.86959279e-01, 4.86959279e-01,
          4.46215838e-01, 4.46215838e-01, 4.46215838e-01, 4.46215838e-01,
          4.46215838e-01, 3.96502525e-01, 4.21476871e-01, 4.69203770e-01,
          4.69203770e-01, 4.69203770e-01, 3.09865683e-01, 4.74143267e-01,
          4.74143267e-01, 4.74143267e-01, 4.74143267e-01, 4.46215838e-01,
          4.46215838e-01, 4.46215838e-01, 4.46215838e-01, 4.46215838e-01,
          3.96502525e-01, 4.21476871e-01, 4.69203770e-01, 4.69203770e-01,
          4.69203770e-01, 3.09865683e-01, 4.74143267e-01, 4.74143267e-01,
          4.74143267e-01, 4.74143267e-01, 4.46215838e-01, 4.46215838e-01,
          4.46215838e-01, 4.46215838e-01, 4.46215838e-01, 4.46215838e-01,
          4.46215838e-01, 4.46215838e-01, 4.46215838e-01, 4.46215838e-01,
